
//<![CDATA[

// a few things don't have var in front of them - they update already existing variables the game needs
lanesSide = 1;
patchesAhead = 25;
patchesBehind = 5;
trainIterations = 100000;

var num_inputs = (lanesSide * 2 + 1) * (patchesAhead + patchesBehind);
var num_actions = 5;
var temporal_window = 3;
var network_size = num_inputs * temporal_window + num_actions * temporal_window + num_inputs;

var layer_defs = [];
layer_defs.push({
    type: 'input',
    out_sx: 1,
    out_sy: 1,
    out_depth: network_size
});
layer_defs.push({
    type: 'fc',
    num_neurons: 30,
    activation: 'relu'
});
layer_defs.push({
    type: 'regression',
    num_neurons: num_actions
});

var tdtrainer_options = {
    learning_rate: 0.001,
    momentum: 0.0,
    batch_size: 64,
    l2_decay: 0.01
};

var opt = {};
opt.temporal_window = temporal_window;
opt.experience_size = 50000;
opt.start_learn_threshold = 10000;
opt.gamma = 0.9;
opt.learning_steps_total = 10000;
opt.learning_steps_burnin = 1000;
opt.epsilon_min = 0.0;
opt.epsilon_test_time = 0.0;
opt.layer_defs = layer_defs;
opt.tdtrainer_options = tdtrainer_options;

brain = new deepqlearn.Brain(num_inputs, num_actions, opt);

learn = function (state, lastReward) {
    brain.backward(lastReward);
    var action = brain.forward(state);

    draw_net();
    draw_stats();

    return action;
}

//]]>
    
/*###########*/
if (brain) {
brain.value_net.fromJSON({"layers":[{"out_depth":375,"out_sx":1,"out_sy":1,"layer_type":"input"},{"out_depth":30,"out_sx":1,"out_sy":1,"layer_type":"fc","num_inputs":375,"l1_decay_mul":0,"l2_decay_mul":1,"filters":[{"sx":1,"sy":1,"depth":375,"w":{"0":0.010676746388939033,"1":-0.00038959864710421457,"2":0.055601270516830496,"3":0.07830638230701827,"4":-0.1032180999767642,"5":-0.00965665180885327,"6":-0.0192592771929272,"7":-0.06578765590702679,"8":-0.09950709874540364,"9":0.0006652603110439648,"10":-0.10544147992976602,"11":-0.0767568081136194,"12":0.05230044262515271,"13":0.029010862423591764,"14":0.13756099563176397,"15":-0.03250941118800534,"16":0.0043028592605794565,"17":-0.08438754166830935,"18":0.0006037270361751767,"19":0.08863291166083122,"20":-0.09108813427141756,"21":0.01991532425849016,"22":-0.04103947386863086,"23":-0.0635392006722426,"24":-0.050855526384502824,"25":-0.017055102404685607,"26":0.005226325898180729,"27":-0.003055787737083119,"28":0.041269557078785706,"29":-0.006353835900232423,"30":0.06863607464953063,"31":0.02526401136190879,"32":0.013739329933737976,"33":-0.0011441875102718951,"34":0.0013641855002200231,"35":0.033622295308293075,"36":-0.03015985547037563,"37":0.000286566188021857,"38":0.0007791971358360009,"39":-0.07927864448286309,"40":-0.08472817636706434,"41":0.007637401664683716,"42":-0.0331606178941655,"43":-0.055580574540055334,"44":-0.07755665606245746,"45":0.07430702947936141,"46":0.023938254686209273,"47":-0.014678364986358676,"48":0.042335870186700666,"49":-0.061372654667097286,"50":-0.004752484882179396,"51":-0.025257064137373986,"52":-0.008933561931834819,"53":-0.10398575084855634,"54":-0.007963337593024656,"55":-0.10526460984145522,"56":0.049393262402708527,"57":-0.02387703599688804,"58":-0.037385205989763415,"59":-0.023901167427737898,"60":-0.09305444698394427,"61":-0.04842956702039343,"62":0.00044325895000217727,"63":-0.0016812802296367571,"64":0.039029792725417685,"65":0.08692557008027388,"66":0.07405028164629979,"67":-0.049359370996918145,"68":0.003788473489038139,"69":0.032849403409342254,"70":0.05142206888379619,"71":-0.02333109890789578,"72":0.030162703852616393,"73":-0.013574964946808142,"74":-0.018675066321114916,"75":-0.004633688631198317,"76":0.03712525157848919,"77":0.058956874023505225,"78":0.022802945647756628,"79":-0.08794074383553496,"80":0.12643786896466486,"81":0.004951784138832292,"82":0.006279272530677841,"83":0.015640508745681406,"84":0.08537792528268674,"85":0.011577853784368815,"86":-0.03920516459880158,"87":-0.06673674363191326,"88":0.04040406649147511,"89":-0.0724791891801753,"90":0.06075957931966739,"91":-0.054329491057501504,"92":-0.012675067443503305,"93":0.020417936824740884,"94":-0.024424585319346364,"95":-0.009223440374438936,"96":-0.050362377661108695,"97":0.02075507679670938,"98":-0.005767945094574183,"99":0.027219448860156415,"100":-0.03347362563163578,"101":0.04053780295965531,"102":-0.04607712331409185,"103":-0.11151203550637843,"104":0.024114514009772964,"105":0.006826795425624527,"106":-0.035763111755868264,"107":-0.09989353883867405,"108":0.01806234639087169,"109":0.0236222933237455,"110":0.045245092958623945,"111":0.04961779674989379,"112":0.13635157791038635,"113":-0.04117422611316277,"114":0.07819447559844014,"115":-0.04941267056027918,"116":-0.025950820052200934,"117":-0.004491278105038743,"118":0.01838974977946167,"119":0.023176462392344877,"120":-0.002063775788118349,"121":0.011652556704224083,"122":-0.04603162335329003,"123":0.02882524997972501,"124":-0.02497665146826927,"125":0.00034161164133191197,"126":0.016116671380346417,"127":-0.041771201415177824,"128":-0.01774468442577694,"129":-0.003028663617586494,"130":-0.031799798800410575,"131":-0.12944451623248482,"132":-0.05935652567740559,"133":0.0435896271199173,"134":-0.021002204888764635,"135":0.0810842627968289,"136":0.032078550354082,"137":-0.03623368667905784,"138":-0.008030356762662259,"139":0.0031649284824040998,"140":-0.04640700483034706,"141":-0.020112610141193366,"142":-0.055486194547741216,"143":-0.059134668760243043,"144":0.05727395160677009,"145":-0.09123826438062656,"146":0.03275737789290191,"147":-0.01021504119522751,"148":0.015261488694034772,"149":-0.021329981762248908,"150":0.04779310718366137,"151":0.03820595236450161,"152":-0.034953368698099244,"153":-0.09593952876519561,"154":0.06251651252917856,"155":-0.03837582483484988,"156":-0.03004666386280786,"157":-0.06924437079469743,"158":-0.07826614159477174,"159":-0.07011951650262767,"160":0.0022042218423004223,"161":0.03653341809786293,"162":0.0807806270420679,"163":-0.019681695244030593,"164":0.04536263162360519,"165":-0.03332887469197276,"166":0.04641975032867358,"167":0.05670228385430596,"168":0.03949278082952553,"169":0.06272452212305543,"170":0.07865751068504485,"171":0.03003048376566092,"172":0.06888334563881517,"173":-0.02545233479910404,"174":0.013740593274127523,"175":-0.006200219752389633,"176":-0.028784843220025513,"177":0.027619566456879352,"178":-0.012659438123948112,"179":-0.05190941219659958,"180":-0.04509690497785021,"181":-0.08723091798818074,"182":-0.022731989786917716,"183":-0.023049615134159734,"184":-0.06772193272440427,"185":0.005072124991993091,"186":-0.0383508623031665,"187":0.04407788554138503,"188":0.03406538710164148,"189":0.015330540641791542,"190":-0.027907151600125545,"191":0.021080021399883606,"192":-0.037065672952830336,"193":-0.03883214055165831,"194":-0.01590970665904649,"195":0.1567810374157638,"196":-0.01484647005762051,"197":-0.018109364220712472,"198":-0.05603578085322818,"199":-0.028835363970932764,"200":-0.037271806368542326,"201":-0.050651680589300634,"202":0.008596275766706643,"203":-0.06916229624855637,"204":0.0768300104050783,"205":-0.07406520839305196,"206":-0.026110911283257297,"207":0.07879243346238973,"208":-0.06532910567561673,"209":-0.09945831744596303,"210":0.015357521087177282,"211":-0.08856891927261719,"212":-0.07413837468373917,"213":-0.03916665930242093,"214":-0.01921454872944566,"215":0.004617103729992743,"216":-0.013915639443580213,"217":-0.0074173037644425415,"218":-0.05219793834754287,"219":-0.06519617046381394,"220":0.09490035793376175,"221":-0.02326014794896052,"222":-0.02740928047298245,"223":0.04040292645319822,"224":-0.005920728449010591,"225":-0.10537358050298791,"226":0.03515007179494945,"227":-0.09458331840205268,"228":0.020930031536352752,"229":-0.013250582753851492,"230":0.05927809338927249,"231":0.021406684934228728,"232":-0.017906286597365467,"233":-0.016321649992801047,"234":-0.04020791585909329,"235":0.039629516894443946,"236":-0.026880251877068755,"237":0.0035251706188651768,"238":0.003522885760295545,"239":-0.05879096136962287,"240":-0.13120444049689203,"241":0.1207978389251381,"242":-0.0391964110402954,"243":-0.09908041648660768,"244":0.016382504544693574,"245":0.035898125906649536,"246":0.04132889650062291,"247":-0.09966226057541071,"248":0.02946652487617887,"249":-0.0324558684376663,"250":-0.037159226679232805,"251":-0.04571618248060937,"252":-0.09266771003667641,"253":-0.004233341664017949,"254":0.04831685995972871,"255":-0.011100110511589725,"256":0.03896477832635632,"257":0.033920171991655,"258":-0.05163400497897955,"259":0.023147902650858473,"260":-0.0428970772589958,"261":0.004763419554133332,"262":0.001250721585815221,"263":-0.003619717601280427,"264":-0.03677408877242473,"265":0.05626409358032932,"266":-0.08245769240977145,"267":0.010609466333930099,"268":-0.020745839480369326,"269":0.03963002585057044,"270":-0.06197786346412943,"271":-0.061925629967679544,"272":0.018534484251662736,"273":-0.019597148461122576,"274":0.02195991594662453,"275":-0.06825027191380387,"276":-0.05533658301830972,"277":-0.045440342531383036,"278":-0.06983056058458594,"279":0.00025394414157931796,"280":-0.028624311400187726,"281":0.05090454639123599,"282":0.08207777702325747,"283":0.07313997447909612,"284":0.010367859722490968,"285":-0.11464896260539315,"286":0.05710163883527081,"287":0.05634254080361976,"288":-0.029930078228240717,"289":0.024984153080902616,"290":-0.022489136354427952,"291":-0.03053517075150992,"292":-0.022074618159720255,"293":0.00530976715018304,"294":-0.002981729048032362,"295":0.08386326332241276,"296":-0.026909179864231636,"297":-0.04352879579156718,"298":-0.008279692710569374,"299":0.04074428330259993,"300":0.06717467608394614,"301":-0.06112904824102635,"302":0.03984993339786349,"303":0.04973741796663505,"304":0.06415274411719378,"305":-0.016732434764463882,"306":0.04536220311489297,"307":-0.04145222137338607,"308":-0.061738033931814006,"309":-0.03961768055116958,"310":0.05543955235705712,"311":-0.11032552537903982,"312":-0.02301227564168847,"313":0.06194158014390893,"314":-0.056139045152983125,"315":0.07150574356840468,"316":-0.006129168510487327,"317":0.01964490560374308,"318":0.017642811313542534,"319":-0.0021606443835746414,"320":0.0026501338852291294,"321":-0.04771772925405221,"322":0.060037033076869195,"323":-0.050539909677694,"324":0.006838340260356937,"325":-0.03586903967109394,"326":-0.051992672287306405,"327":0.0629042298521971,"328":0.03975588485316751,"329":0.050381781710859136,"330":0.04253722051252113,"331":0.000014156220758755134,"332":0.06274027099745212,"333":-0.10389490867462106,"334":-0.011037360581394135,"335":0.04793070120698467,"336":-0.016687338987002084,"337":-0.06478183565130187,"338":0.04011086301161998,"339":-0.11137461248175043,"340":0.05540018876562325,"341":0.09924113418357429,"342":0.015344124975804367,"343":-0.0100561303487538,"344":0.02168813028568669,"345":0.031426231500973976,"346":0.01101637061516035,"347":-0.006165945085255233,"348":-0.005986672858999393,"349":0.054932681084344175,"350":-0.015366521626344285,"351":0.025923127565310747,"352":-0.030627176370978327,"353":-0.011630453968649673,"354":-0.12188144787136534,"355":0.007029965893841874,"356":-0.09745682240422966,"357":0.0659400129226511,"358":0.005623710225890946,"359":0.01008888482050927,"360":-0.020746759034803896,"361":-0.02361446180618767,"362":0.0008115616061692109,"363":-0.005224683786591894,"364":-0.026430551133367744,"365":-0.05610860890218369,"366":-0.07862130930924753,"367":0.044375261094256206,"368":0.018331556096031855,"369":0.017144858591483146,"370":0.032419107870486547,"371":0.0008864923111413787,"372":-0.026318799802842054,"373":-0.04244953319129561,"374":0.018851956129789585}},{"sx":1,"sy":1,"depth":375,"w":{"0":-0.04392594407500135,"1":-0.032303405174370914,"2":0.04610894172375359,"3":0.017092770609954185,"4":-0.030671817858058895,"5":-0.045617848537396345,"6":0.010850975128558751,"7":-0.014788916160334122,"8":-0.003345342406657405,"9":0.03271570421125597,"10":-0.009494177909397807,"11":-0.0044628688985240235,"12":-0.03800081139689476,"13":-0.09167414615265507,"14":-0.03183264441801839,"15":0.004220227802322384,"16":-0.09022881105510464,"17":-0.006247445701185072,"18":0.011732520438287078,"19":0.028194880656825974,"20":0.040512477719466644,"21":-0.0615085169267699,"22":-0.0208397122182627,"23":-0.0063568573639958895,"24":-0.013230523666549542,"25":-0.010151530326648592,"26":0.06287866793080826,"27":0.11831705711818741,"28":-0.08440089253785116,"29":-0.0694972468989441,"30":-0.0786743442578571,"31":-0.06407408768791746,"32":0.007396862330490771,"33":0.02763237694854832,"34":0.07621613867181515,"35":-0.06396713486171524,"36":0.04908853478284099,"37":0.06404762567144018,"38":0.05739726973440391,"39":-0.02600692489410903,"40":0.0019073537851976438,"41":-0.07166560780667047,"42":0.00288617409563404,"43":-0.07444198957448972,"44":-0.013751560939325164,"45":0.017461130206862546,"46":-0.08854090421681793,"47":-0.02513734245290788,"48":0.013840429545725045,"49":-0.02496436170592158,"50":-0.0038560919234332546,"51":0.0173523412360059,"52":-0.09181663750898113,"53":-0.06661402774080717,"54":-0.0052748130708802085,"55":-0.1291654383884263,"56":0.011971428222336392,"57":-0.057968213461909286,"58":-0.034528151901829764,"59":0.05232724666764315,"60":-0.07804599221022133,"61":-0.02843937586736497,"62":-0.06728093314201625,"63":-0.0129913512950166,"64":-0.05227228604401756,"65":-0.03993721606367277,"66":-0.019916526559037185,"67":-0.044957582431227196,"68":0.03186733713861136,"69":-0.0047484769006196775,"70":0.01592208062966054,"71":-0.055989185364987586,"72":-0.000528577483707837,"73":0.03377937817387634,"74":-0.050670947968003095,"75":0.000503937048542833,"76":0.05472358508977395,"77":-0.03277285568694608,"78":-0.015081353369002914,"79":0.04118307667012375,"80":-0.11055075013982686,"81":0.09317691922295597,"82":-0.065865007878295,"83":0.058985929737347106,"84":-0.05744423455829111,"85":0.07533707828222976,"86":-0.02082305337571954,"87":-0.025597408492131508,"88":-0.11978922726426659,"89":0.05037292342758905,"90":-0.06101588954132157,"91":-0.024727654901600612,"92":-0.10359525870283115,"93":0.134879166501545,"94":-0.08122856317710556,"95":0.009128912718341403,"96":0.015252451313557642,"97":-0.026717837533428292,"98":0.010309214943660026,"99":0.009346227617492207,"100":0.01439110870585282,"101":-0.00430884279547874,"102":0.032651843941295625,"103":-0.09949715650337088,"104":0.04698301604213551,"105":-0.08468462466434633,"106":-0.0007071279855915202,"107":-0.017730677902833215,"108":-0.028890585138335728,"109":0.046233241552922945,"110":-0.08665691695506862,"111":-0.024165942364311323,"112":0.0036309905313883103,"113":0.022255681734284615,"114":0.05203316902978177,"115":0.011499129931799008,"116":0.00661633327143103,"117":0.017484550434831492,"118":-0.011519276874749578,"119":-0.031009257491826564,"120":0.010491238329946747,"121":0.04318531354766153,"122":0.06692268514387475,"123":-0.07797547768978265,"124":-0.03922107630203661,"125":-0.03175978035485609,"126":-0.035257123033233015,"127":0.040858703558241866,"128":0.0018856705949380848,"129":0.010863963719977767,"130":-0.10431704323243574,"131":-0.06871901089100123,"132":0.0261565724376675,"133":0.017871375659193806,"134":0.030668892798861716,"135":0.037886238137931856,"136":0.05933051113473628,"137":-0.02453424714480479,"138":-0.11816685669800679,"139":-0.06283761375120087,"140":0.021430735703277547,"141":0.10706072856396029,"142":-0.015163407102952907,"143":-0.045177918040339354,"144":0.05518984332990802,"145":-0.025940684472330493,"146":0.059075033191770064,"147":-0.005960769828076748,"148":-0.04578193079702383,"149":0.11277439605804099,"150":-0.01334919585076086,"151":-0.10445790751953203,"152":-0.05119679879591618,"153":-0.046812561306925814,"154":-0.028011517926134655,"155":0.004556600158621132,"156":0.06501830617095611,"157":0.06623560951603867,"158":0.0957476321543121,"159":0.08956636294798317,"160":-0.016452686228151166,"161":-0.05388704985020013,"162":0.017535059066113506,"163":0.01911566374291972,"164":0.050422042606155425,"165":-0.02463524892635441,"166":-0.040849985884738926,"167":0.08755070717786824,"168":0.0278459413329456,"169":0.07432126539380053,"170":0.01651186714515393,"171":-0.006357541184000768,"172":0.06663157795298155,"173":0.033896085463152786,"174":0.04656464587537115,"175":-0.0002172916240743283,"176":-0.14751701103104808,"177":-0.022198090896953765,"178":-0.004809134630027897,"179":-0.039347964546291386,"180":-0.018731907057377012,"181":-0.09701936031838367,"182":-0.08849099145248181,"183":-0.07045449380951244,"184":0.04319080459370395,"185":0.038978710410950954,"186":-0.0039166248262534915,"187":0.02766750016946257,"188":0.04058936750410617,"189":0.042619522581979916,"190":-0.038367883306762225,"191":0.116837424005419,"192":-0.004457790278720205,"193":0.009107187411175183,"194":0.055134606315601825,"195":-0.003710328210713275,"196":-0.09309644010002827,"197":0.06887510963682385,"198":0.08542690523678051,"199":0.09958374783635347,"200":-0.006345187801960181,"201":0.0046915011142606424,"202":0.03272237366770091,"203":0.009519952459028183,"204":0.07359520065309051,"205":-0.00813098953980073,"206":-0.0327728910227919,"207":-0.11143303000007075,"208":0.017612885436045316,"209":-0.005329047354933226,"210":-0.03998380938699568,"211":-0.06443378077578266,"212":0.08131290574548908,"213":0.004862102888842224,"214":-0.12460436888066646,"215":0.004035934409975528,"216":0.02050729958142582,"217":0.004249358128012735,"218":-0.009578133916967753,"219":-0.002410807556239882,"220":0.05297293443373529,"221":0.015466877144241227,"222":0.0034106578282253265,"223":-0.06140278756597107,"224":0.000419206662226103,"225":0.015580057672039828,"226":0.04894214108904022,"227":-0.023539114105196664,"228":0.06712008186701568,"229":-0.08372859152952056,"230":-0.027683709338622745,"231":0.036775454662582474,"232":0.003978098530168397,"233":-0.02074554499453271,"234":0.04091870678826294,"235":-0.008101940140281866,"236":-0.0355771174979094,"237":0.04826850626701315,"238":0.02088492028940985,"239":-0.03283497634276725,"240":0.026711771770376595,"241":0.07680413365594131,"242":0.049260313646938746,"243":0.024603637160173723,"244":-0.009674574743611974,"245":0.011863809908227795,"246":-0.06317167114300952,"247":0.049689151115424,"248":0.05808550235487648,"249":-0.05057203215505051,"250":-0.039239679407961,"251":0.023305654693364198,"252":0.008734785355154616,"253":-0.050990087535473995,"254":0.024589241335569074,"255":0.07299143853201438,"256":-0.004319917448799411,"257":0.00485986111814562,"258":-0.005918383738162771,"259":0.03474219988627803,"260":0.009842451990555686,"261":0.08475353784705365,"262":-0.033007575730643966,"263":0.11393427290875416,"264":0.052666643206689255,"265":-0.005312733189850081,"266":0.0480258709305624,"267":0.06561629011399395,"268":-0.08115479315730385,"269":0.06311240603486339,"270":0.0063043839470977615,"271":-0.0003882927091900119,"272":-0.05226583665737197,"273":-0.03670792660245415,"274":0.06747266208280969,"275":-0.050308983108276854,"276":-0.011487224382604456,"277":-0.0763611796415443,"278":-0.026592387988511632,"279":-0.0855010497183177,"280":0.1355872488924061,"281":-0.004695479712913095,"282":-0.07164301557545844,"283":0.022896978977476976,"284":0.14560170019153382,"285":-0.02677411309877863,"286":0.009259380629273645,"287":0.05919572960140396,"288":-0.017302252455800006,"289":-0.013866902626647592,"290":-0.0670713385314409,"291":0.03417651649991125,"292":-0.00621118253356457,"293":-0.08390954162700336,"294":-0.013257108582919556,"295":-0.061328203451215826,"296":-0.0031740035983957643,"297":-0.06444545178382244,"298":-0.015207563413056352,"299":-0.09876386776717251,"300":-0.01805125307210213,"301":0.07780431514496347,"302":0.04655342378310075,"303":0.0541565670296731,"304":-0.10885936416657092,"305":0.028432216008890128,"306":0.016038689495892818,"307":-0.0532994065612847,"308":0.06506968238493263,"309":0.06628011307101465,"310":0.009991364738803904,"311":-0.07756519216878546,"312":-0.07330994673393271,"313":0.020154961379521146,"314":-0.03905101785317471,"315":-0.04427255348978079,"316":-0.014531832602455668,"317":0.008585821490684974,"318":-0.06346960008850076,"319":0.03499635663650965,"320":0.0602744824148613,"321":0.006834946042895944,"322":0.07468849515296137,"323":-0.048038464958977796,"324":0.16939661099456607,"325":0.0669943900139411,"326":0.00011374268434203373,"327":0.03283449572148454,"328":-0.013940498400906755,"329":-0.008442856594283404,"330":-0.008202347462638378,"331":0.04828997221251569,"332":-0.06436422806950065,"333":-0.0383721545060855,"334":0.08051630475604263,"335":-0.002303675180258123,"336":0.013027680314697162,"337":0.04141427885397565,"338":-0.1513521647351253,"339":0.047913446541330514,"340":-0.0416058975255941,"341":-0.02420349275331986,"342":-0.03034827245917414,"343":-0.01331777189064101,"344":-0.014050793331554805,"345":-0.046775715025060095,"346":-0.003548834183647874,"347":0.03815373987474641,"348":0.052836410712771356,"349":0.047564408944843026,"350":-0.08882517232124726,"351":-0.02758738619175673,"352":-0.026725421975445453,"353":0.02254220310946617,"354":0.02454096485234905,"355":-0.03820556402746032,"356":0.06642053555231962,"357":0.05575890698721312,"358":-0.04401252676055805,"359":0.040738913831076314,"360":0.01586851192410709,"361":-0.020255463460516675,"362":0.00047740646829124757,"363":0.02278056455137556,"364":-0.11432588145878861,"365":0.023589854255883003,"366":0.035233925187663204,"367":-0.05406266001648211,"368":-0.05054086269608031,"369":0.0018246492864689855,"370":0.036086095069542426,"371":-0.023430624803180825,"372":0.006703979461421362,"373":-0.013827267738690197,"374":0.05535719010057977}},{"sx":1,"sy":1,"depth":375,"w":{"0":0.1352413270329815,"1":0.11878785487180844,"2":-0.05246441593279508,"3":0.048585024848140285,"4":0.027410821881751375,"5":0.03205962026689362,"6":-0.02012961595371908,"7":0.019276834316626867,"8":-0.03765667830900009,"9":-0.045966465053261005,"10":-0.00445544901906996,"11":-0.03689095785283461,"12":0.04491725411532635,"13":0.08062579561128062,"14":-0.007457834327644132,"15":-0.02410361526014269,"16":-0.057672412344179684,"17":-0.013652280945779954,"18":0.04234452725072218,"19":-0.03510449104132167,"20":0.015721070330238552,"21":0.0311071419714794,"22":-0.009265022784729796,"23":0.009906600214711991,"24":0.043898079379507536,"25":0.023011870256685996,"26":-0.05533322079069646,"27":0.034719852634365556,"28":0.04916009111294102,"29":-0.010797248264221435,"30":0.05246751990960326,"31":0.03146743495885085,"32":0.0310642141125606,"33":0.048555380471714975,"34":-0.01361678677927408,"35":0.0004216253836186545,"36":0.031897468759823605,"37":0.06379613170649498,"38":-0.12268752066312796,"39":-0.05790531219396416,"40":0.09919250666722673,"41":-0.022872244722171833,"42":0.043102917143824845,"43":0.03396641075160577,"44":0.008881841631985896,"45":0.05811731321347224,"46":0.09438567928317404,"47":-0.03259496457221266,"48":-0.06949388871697999,"49":-0.03649887796078131,"50":-0.06901132797026725,"51":-0.05773100574753363,"52":-0.10389190128737362,"53":0.0350788517000136,"54":-0.08004286303691385,"55":0.048150764718964845,"56":0.07392556479350089,"57":0.14974365418230998,"58":0.07374973759608193,"59":0.09651027293687894,"60":-0.006797636654464716,"61":-0.07335938092473158,"62":0.004761533803237411,"63":0.028960180083963023,"64":-0.08110721068863713,"65":0.016025794917859517,"66":-0.02850910459792781,"67":-0.06420566501012469,"68":0.025724711086882988,"69":0.01844119028348584,"70":-0.043370031542084846,"71":0.0353892743177275,"72":0.02218500651752726,"73":-0.09018499185354478,"74":-0.053168855807680666,"75":0.02332482023224561,"76":0.06322050184956,"77":0.01622895070855117,"78":-0.03300378863930657,"79":-0.005221587153230437,"80":0.1037076246770948,"81":0.050943068764899575,"82":-0.06245325166400626,"83":0.00746443359998154,"84":0.06873949823007867,"85":-0.01458435517687265,"86":0.03151364522774448,"87":-0.04211787085056884,"88":-0.09974747450089058,"89":-0.008337522395062157,"90":-0.06536465222409361,"91":0.06900689226424284,"92":-0.025404532008457086,"93":-0.0035035701860034467,"94":-0.004900694209980003,"95":0.036282074732639925,"96":-0.0013183746208620523,"97":0.02217393504027334,"98":0.0359825741793976,"99":0.06627170592926877,"100":0.016478623352915275,"101":-0.029472994325473095,"102":0.09425163720204756,"103":-0.02292325283369234,"104":0.04822891373122029,"105":0.04562932468709416,"106":0.014826336788153467,"107":-0.021694583687526674,"108":0.09125290300206097,"109":-0.04848595635637165,"110":-0.06697078866263038,"111":-0.08572582152824054,"112":0.018691338054959195,"113":0.05973229039044971,"114":-0.03815735963154403,"115":0.026424806629565742,"116":0.04101210842704691,"117":-0.055218122120074424,"118":-0.0963381181254896,"119":0.07494911562570264,"120":-0.07984708909707937,"121":0.03354175244343287,"122":-0.0008347249810663314,"123":-0.10142877079972865,"124":-0.01363588353314336,"125":-0.024957147978966844,"126":-0.017665028133313644,"127":0.06419519691831357,"128":-0.026965776103974007,"129":0.09257208225444716,"130":0.041626558709287956,"131":-0.01924410688819347,"132":0.054929134785417874,"133":0.13873370258006407,"134":0.038533612072794085,"135":0.1077956819235055,"136":0.0918330794740493,"137":-0.038732779928815374,"138":0.021504937835031414,"139":0.021523508600434872,"140":0.0745744647930935,"141":0.06088544802323945,"142":0.0018098591417527695,"143":-0.021713021638151617,"144":-0.0009101550530675379,"145":-0.028840335595058827,"146":0.059053444135768345,"147":-0.040111260193460924,"148":-0.08207182933387935,"149":-0.03457184857688613,"150":0.015943092397464203,"151":-0.002119056225751509,"152":-0.03606725439081992,"153":0.035523010741352626,"154":0.060279862400183064,"155":-0.08536681907899242,"156":0.02627125762174218,"157":-0.09092304197840473,"158":0.007258305970233425,"159":0.13076031826201778,"160":0.02251794521451727,"161":0.023247668685276782,"162":0.025032790285835348,"163":-0.01009426151092902,"164":0.024633916830396153,"165":-0.016997347709026094,"166":-0.009131655972790143,"167":0.10987611181476375,"168":-0.005776016711207214,"169":-0.03654839517655807,"170":0.04434233696574267,"171":0.02825246205391,"172":0.09105233514144612,"173":-0.008000457257460198,"174":0.05214353081480711,"175":0.02834877519975624,"176":-0.057805345771307894,"177":0.09003692662608029,"178":0.0265637862108258,"179":-0.01869588395737606,"180":-0.033575711499554746,"181":-0.009415535842529313,"182":0.15007988651997692,"183":-0.022149601339527307,"184":-0.107318370309103,"185":-0.058613815745970334,"186":0.007332139266782605,"187":0.023870867303210693,"188":0.07528043966010033,"189":0.04311007997333044,"190":0.021943902299880427,"191":0.0064431278001658345,"192":0.04915361510089508,"193":0.01391909220773793,"194":0.007823001941200872,"195":-0.05883178941958518,"196":0.01257767831957872,"197":0.01083809517752202,"198":-0.03230302197965501,"199":0.02491711073444361,"200":-0.11951656334380388,"201":-0.05349213028161729,"202":-0.01838516728688194,"203":-0.016180662767434458,"204":0.07595873786865981,"205":0.03672151474192586,"206":-0.048945224007626006,"207":-0.007394991861963828,"208":-0.06074394628322268,"209":0.07131728597318063,"210":-0.04040116094005103,"211":-0.08917868777349883,"212":-0.015258962378869256,"213":0.035289473304128426,"214":-0.09278790957229927,"215":0.010881390640536722,"216":-0.021810192639926968,"217":0.024941137669816052,"218":0.0060040532869922395,"219":-0.005030613801351144,"220":0.03756120171011097,"221":0.0322573703907769,"222":-0.10077386486604746,"223":-0.014082613199464104,"224":-0.05141346570512773,"225":-0.04961626604464564,"226":-0.05273343597764651,"227":0.011220756937381704,"228":-0.026017121318915076,"229":-0.01292451477413069,"230":-0.007478577320700701,"231":0.029291363623797244,"232":0.05091139144546786,"233":-0.04247019456408442,"234":0.05438389342682121,"235":0.03414559056367113,"236":-0.04644711447486033,"237":0.027376597510507552,"238":-0.06920802716817635,"239":-0.13072499043866356,"240":-0.007284777756747025,"241":-0.05477145583577531,"242":0.02639074113302964,"243":0.03625542876535768,"244":0.0492907260633064,"245":-0.017023731389896952,"246":0.01761893238458162,"247":-0.04620914539775773,"248":-0.00463389841705692,"249":0.039876924585077064,"250":-0.008657256585156392,"251":0.10907581502865929,"252":0.004891141552129026,"253":-0.04350590624964686,"254":-0.019557942779584492,"255":0.09191739207996875,"256":-0.021399676802483357,"257":0.03377081597988827,"258":-0.0031191848795812053,"259":-0.021966089651321373,"260":0.08456013764540017,"261":-0.09840282699245789,"262":0.10452707291190343,"263":-0.09878360346031011,"264":-0.038123348658676504,"265":-0.06608295233686488,"266":0.016644518764580445,"267":-0.033809170561600155,"268":-0.08312453563736429,"269":0.015510946525126634,"270":0.03204910616798807,"271":-0.025148013756782158,"272":0.08568753382880474,"273":-0.07120226977999417,"274":-0.0224209760871629,"275":-0.05446246967348815,"276":-0.07099698093674639,"277":0.00315421358493507,"278":-0.0563577753933317,"279":-0.008839330276716113,"280":0.028805350605850932,"281":-0.07349207494584327,"282":-0.05317287158579915,"283":0.043503782021103346,"284":-0.035002996429536005,"285":0.08280545533186048,"286":-0.0009007535011191505,"287":-0.028213789656934957,"288":-0.005454526297535267,"289":0.07467072830098104,"290":0.12744095291727675,"291":-0.002746090125089456,"292":0.02400495610966702,"293":-0.06668029286882059,"294":0.057108493601600106,"295":-0.03223817227251089,"296":-0.043517700397106354,"297":0.00869872535195197,"298":-0.03530380382681609,"299":-0.006009055580023528,"300":-0.07787904504523921,"301":0.01868713169209527,"302":-0.0072146983592521995,"303":0.012917032541461596,"304":-0.04593661225409181,"305":-0.03218567247884666,"306":0.014961032213466967,"307":-0.004463671337847014,"308":0.06811323437514875,"309":0.03270243162091745,"310":-0.007986547645511379,"311":0.0169572678250222,"312":0.12039835676962865,"313":-0.006793643373808718,"314":0.06174353001493195,"315":-0.014783872471805954,"316":0.015218032490586753,"317":-0.04401851400052556,"318":0.01536289681625854,"319":-0.0011779990818781832,"320":0.013811344187130963,"321":0.16068871350517117,"322":0.04130011030171633,"323":0.06449073806113517,"324":0.04129844471333721,"325":-0.010393059368663294,"326":-0.08086835615422952,"327":0.02114732970805521,"328":0.04997997560410063,"329":0.017502035836953225,"330":0.0027108586692589864,"331":-0.009079608539687724,"332":-0.02048230574502073,"333":-0.00968176305161996,"334":0.042898662883856,"335":-0.03556685914882401,"336":0.0392923694161814,"337":0.014648313998032458,"338":0.0526517619909467,"339":-0.05668692191827403,"340":0.00859511953589289,"341":-0.007207990489049776,"342":0.017604686799946992,"343":-0.09179428752271176,"344":0.11583120860936374,"345":0.045707366741747524,"346":0.053869979294314724,"347":0.024477812512812315,"348":0.04919205506549271,"349":0.02084392567871669,"350":-0.05998347383376185,"351":0.012542395813055884,"352":0.06267013789302864,"353":-0.003516490351072124,"354":-0.02643672262826575,"355":-0.016887067041666485,"356":-0.024637081962078422,"357":-0.03985089799084073,"358":-0.057522320627916144,"359":-0.01897278316000808,"360":0.05826670241750699,"361":0.013999985200909493,"362":0.0432910894404678,"363":-0.06809579690091233,"364":0.1417091277482701,"365":0.02254177867200677,"366":0.04314268980969719,"367":0.006848525130052546,"368":0.0446486659958233,"369":-0.031127800697066277,"370":-0.018066349191361377,"371":-0.06911026803432116,"372":-0.007219109088454733,"373":-0.007872682955037921,"374":0.005391080241348829}},{"sx":1,"sy":1,"depth":375,"w":{"0":0.04109488120154768,"1":-0.10302596969934785,"2":0.10419216724593439,"3":0.009225249410723436,"4":-0.08920907815342825,"5":-0.008569256439632031,"6":0.015197009081281921,"7":0.05916014101717342,"8":0.0010576956531060582,"9":0.08599103877455806,"10":-0.0691781416487719,"11":0.05365260771133469,"12":-0.05593117330768726,"13":-0.060737957638253515,"14":-0.022687250229961996,"15":0.04336369674304973,"16":0.023971913664619707,"17":0.0217243326921982,"18":-0.08908387754680727,"19":-0.0662382298643462,"20":0.006055041585804961,"21":-0.06919897699654992,"22":-0.03813625597618722,"23":-0.014151536496178369,"24":-0.05755496353371202,"25":0.029613626833749043,"26":0.0014917430889682805,"27":0.05296221068284384,"28":0.030636964571393244,"29":0.057130091553827866,"30":0.015128737954668132,"31":0.05005716039141111,"32":-0.0709267288785142,"33":0.02536138066791745,"34":0.03451139725791842,"35":0.02422510708808547,"36":0.02997247865479662,"37":-0.11399857747428972,"38":0.00784002083779866,"39":0.003158473458917751,"40":0.032052041983581435,"41":-0.052126860945881634,"42":-0.01490651417068893,"43":0.09080118559954922,"44":-0.0014422540186449042,"45":0.04888521790211337,"46":0.05357011998250297,"47":0.048658325554212636,"48":0.0011149106913540276,"49":0.0071135428729933595,"50":0.018700519058613415,"51":0.05877242809238261,"52":0.024597020640162337,"53":0.07290452174933862,"54":0.03274347976975765,"55":-0.03221065828643005,"56":-0.058743493124739594,"57":-0.029295025514621712,"58":0.07073749437508818,"59":-0.010572661590492357,"60":-0.062294735736979835,"61":0.02025279514897537,"62":-0.08707763556579529,"63":-0.018455746613369545,"64":0.03978921218282174,"65":0.0224995497069965,"66":-0.0567921386466091,"67":-0.030019137544442166,"68":0.15863674316740622,"69":-0.0036206724497400518,"70":-0.00199890367490974,"71":0.038758687429179074,"72":-0.10030064191746627,"73":-0.05489494158107307,"74":-0.001986439785026071,"75":-0.004954597863565772,"76":-0.046313604279666264,"77":-0.03847247992648141,"78":0.047496070803658225,"79":-0.10812528600235807,"80":-0.01587349474245781,"81":0.053804978194123415,"82":-0.1735428669733389,"83":-0.015125876966220144,"84":-0.048378431721983646,"85":-0.13015153539013377,"86":-0.023598912538847893,"87":-0.07338325774610698,"88":0.04046435429017229,"89":-0.0037637947652641446,"90":-0.02714845541960505,"91":-0.04527698719659764,"92":0.03150116762554027,"93":-0.02602485660428608,"94":0.03627073237372982,"95":0.0760169044137239,"96":-0.11262936807585389,"97":0.022089806190055596,"98":0.06698560481031299,"99":0.04310576097937997,"100":0.006654237581578441,"101":0.024243557007386188,"102":-0.014991376165831096,"103":0.03361146425120716,"104":0.03785691813453394,"105":0.04409295563636546,"106":0.037336444014527605,"107":-0.02912730268036215,"108":-0.009400027898181767,"109":-0.07952533176922087,"110":0.0036235690702065434,"111":0.000444139702112686,"112":0.08677689450512925,"113":-0.06789242772271187,"114":0.07548973709212446,"115":0.05528266926732398,"116":-0.023922394703439983,"117":-0.04612578849567711,"118":-0.0038066498071020493,"119":0.005000747165225562,"120":0.016213342840751852,"121":-0.07267481806797141,"122":0.00786801476416267,"123":0.0302004461984032,"124":-0.05671838466225251,"125":-0.01614989296638367,"126":0.05137158400099549,"127":-0.004966584360881144,"128":-0.07787873870631301,"129":0.0719169831361359,"130":0.041845608051631664,"131":-0.05930966605590735,"132":-0.0423691758311912,"133":0.03691912318893275,"134":-0.012089899173354143,"135":-0.10491826162492136,"136":0.05853301397275428,"137":0.09676949890833281,"138":0.0466827172678754,"139":-0.024898608877043406,"140":-0.027432895116284297,"141":-0.08055485528335282,"142":-0.01921687875414971,"143":0.15491456881211374,"144":-0.006145472070286823,"145":-0.015802659038171567,"146":0.006726294142766102,"147":0.023972280682758338,"148":-0.030024151905336256,"149":0.07390539658171467,"150":-0.05502793003106164,"151":0.014635256846074116,"152":0.04270127118714873,"153":0.07754421221529909,"154":-0.013551801808777249,"155":-0.009534077227828706,"156":0.016825446651137027,"157":-0.0299761225943969,"158":-0.019132674325346013,"159":-0.0742191780827993,"160":0.05594846423184665,"161":-0.010379019835163908,"162":0.008706966191891145,"163":-0.08492883331958173,"164":0.02122868942764413,"165":-0.049722850843859016,"166":-0.07420333416116062,"167":0.001942180017399843,"168":-0.009390261261731706,"169":-0.03858979545028192,"170":-0.0073047653767969725,"171":-0.033062767730126084,"172":-0.11697936036151162,"173":0.0668002296994744,"174":-0.04614575043293854,"175":-0.04285411219342211,"176":-0.022663007888040133,"177":-0.026039068349146502,"178":-0.009629866605733912,"179":0.04994734893150547,"180":0.043052975945880104,"181":-0.12098159434557905,"182":0.04311191998971027,"183":-0.059113010865498195,"184":-0.09680352745232496,"185":-0.047584784286745355,"186":-0.08107250018159332,"187":-0.02930237104576738,"188":-0.031435255358037,"189":-0.04824715210173804,"190":0.0015770477376654795,"191":0.02347365553479559,"192":-0.08090903767419695,"193":-0.017200474326924058,"194":-0.0027384919118959147,"195":-0.12049089252680148,"196":0.0012844002305036509,"197":-0.06313823194182404,"198":-0.03461173237032216,"199":0.05297441600055525,"200":-0.0022170905620261167,"201":0.05636603247135891,"202":0.0955815746793702,"203":0.035266712843736794,"204":0.049328290003668174,"205":-0.053343014327309715,"206":-0.05587437035080955,"207":-0.023655883604618566,"208":-0.04466224143031769,"209":0.004993591298684636,"210":-0.0692275017847884,"211":0.015690945787021023,"212":-0.019144512806860383,"213":-0.003681335617532673,"214":-0.07123276975366459,"215":0.07896707840651655,"216":-0.0321766644114269,"217":-0.04187151388030913,"218":0.031905420086478675,"219":-0.044773531561834154,"220":0.02775593707008281,"221":0.005220110500678065,"222":-0.05096829578990712,"223":-0.002302621449027008,"224":-0.06598624942570061,"225":0.006223775222123434,"226":-0.0015515506535033125,"227":-0.01985948392449415,"228":0.0631941560320362,"229":-0.009380212186386235,"230":-0.0025206588978161004,"231":-0.0033206004835191496,"232":0.04726228345537313,"233":0.029065675489739068,"234":-0.028661440435701825,"235":0.03618563262453519,"236":0.07159626712028679,"237":-0.05312477215030671,"238":0.014266648096923773,"239":0.10958842729037481,"240":0.003675131498227477,"241":0.08966962449653187,"242":-0.11809908727847294,"243":0.018474239314959503,"244":-0.06317861127381601,"245":-0.001253628784411354,"246":-0.024296887484132557,"247":0.040847810274255617,"248":0.049955068565100846,"249":-0.056791688907489195,"250":-0.003238275145730348,"251":0.05183379616068681,"252":-0.013615419424775885,"253":-0.10910382692827521,"254":-0.03825091954615007,"255":0.09830855047646399,"256":-0.008730804514792174,"257":-0.033912272545423526,"258":-0.019517623356329263,"259":-0.05191974039771151,"260":-0.13760504132222406,"261":-0.1466085354950328,"262":-0.05191796413372186,"263":0.07035477750076029,"264":-0.0020365489081148173,"265":0.014089751929543743,"266":0.025878957537240746,"267":-0.027059938662887494,"268":-0.00579026205640385,"269":0.026132151203311384,"270":0.06516368405657764,"271":0.019564110033515512,"272":0.04785231355346861,"273":0.04340768095599896,"274":0.015475922257563841,"275":-0.13633547703235052,"276":-0.050048574327679674,"277":-0.0005416449317077543,"278":-0.020973335125057002,"279":0.008220581359194012,"280":-0.032234451175375316,"281":0.059403842503185936,"282":-0.052071282111747434,"283":0.06582870418416911,"284":0.03441963830136877,"285":-0.10481987770117338,"286":-0.037094315419236,"287":0.05331026769264358,"288":-0.007920290791864706,"289":0.06513785410212605,"290":0.07624969256927693,"291":-0.0395025861680199,"292":-0.0002989229396071674,"293":0.10831843433604402,"294":-0.10444904041261538,"295":0.10114925022340888,"296":-0.04036044565788414,"297":-0.022280091334894867,"298":-0.04540117420216781,"299":-0.02857896518143814,"300":-0.11109629381846481,"301":0.0508523453236816,"302":0.05621760716250925,"303":-0.034836288485484965,"304":0.00687185536383835,"305":0.07605937993959934,"306":0.04361818275555453,"307":-0.06654832430890475,"308":-0.014074521345227324,"309":0.03226106565881886,"310":-0.07563185522181047,"311":-0.038111851186048464,"312":0.028358781609942558,"313":-0.015130391300701788,"314":-0.002654067549269165,"315":0.0013830678539761172,"316":-0.08243268494649525,"317":-0.04704268453015608,"318":-0.047309189610336116,"319":-0.04245491404774526,"320":0.05126368525878205,"321":0.0301242931918049,"322":0.007265643384818444,"323":0.10199890254274827,"324":0.015365726483783313,"325":0.023068361775589522,"326":-0.07114313960979024,"327":-0.06899741572297706,"328":-0.030968775578920794,"329":-0.016191808071301612,"330":-0.08383544870899602,"331":0.031497799633036755,"332":0.007724913400542817,"333":0.07079812592551946,"334":0.030857736898017553,"335":-0.0014357822742699043,"336":-0.04193379245315984,"337":0.029384656803068315,"338":-0.01349400651933339,"339":0.09319028346382474,"340":0.004340431494273715,"341":0.0550656882444098,"342":0.06165561663006211,"343":0.07858441808693577,"344":-0.014062229948300373,"345":0.005097818626172197,"346":0.049111881752471546,"347":0.04094093303319071,"348":-0.05378946944592073,"349":0.03175380886174056,"350":-0.08987281228505034,"351":0.050847726852511654,"352":0.036510893706769736,"353":-0.06126822632441093,"354":-0.01848703017825913,"355":0.049382815963338184,"356":-0.0829913189301312,"357":-0.01755408262014928,"358":0.029697786265454693,"359":-0.014232478890487987,"360":-0.03547448410993977,"361":0.05668960534723437,"362":-0.10155245981552478,"363":0.05584657630230535,"364":0.03890179380453236,"365":0.03659232159982042,"366":0.04332849562798186,"367":-0.017931362918087224,"368":-0.017582103313036616,"369":-0.0073108167730515875,"370":-0.06734091183696735,"371":-0.070429737455637,"372":0.014832791135842903,"373":-0.00990528385636618,"374":-0.02928512603364757}},{"sx":1,"sy":1,"depth":375,"w":{"0":0.12838803730121626,"1":0.0014893551232017046,"2":-0.012308860894522992,"3":0.04285096878646798,"4":0.01697608517674439,"5":-0.03690344813526305,"6":0.01342338278649705,"7":0.1083614289169393,"8":-0.08065817401380171,"9":-0.05177143340602621,"10":0.01136069424380835,"11":-0.046051775979435446,"12":-0.05502795090408908,"13":-0.060111962058402,"14":-0.06817687959569896,"15":0.006710969770539609,"16":0.0481433286963811,"17":-0.06429704017284693,"18":0.030060670362737314,"19":-0.04706254276952264,"20":-0.01286687975143393,"21":0.006686960598358005,"22":0.0156568950112123,"23":-0.11660891294890793,"24":0.10996258719139852,"25":0.024341074860922938,"26":-0.021443357323807217,"27":0.076322056241698,"28":0.06590313522575254,"29":0.02818147732763261,"30":0.02391778495658929,"31":-0.015576325838788476,"32":-0.07697978905314541,"33":0.02796083969034862,"34":0.004531554888619336,"35":0.08053960444663431,"36":-0.005293019418734171,"37":-0.007825091578828054,"38":0.012017021528885586,"39":0.021615920635937775,"40":-0.1041666747549877,"41":0.008965681243687336,"42":0.05652991158103444,"43":0.03253311550131515,"44":0.058308933315886234,"45":0.005451718199186798,"46":0.029033488375900224,"47":-0.042110447992318695,"48":0.0008815256640451891,"49":-0.05557741875723385,"50":-0.061497082167057,"51":0.014800372261912213,"52":-0.052972001052955124,"53":-0.02289178645338342,"54":0.07677963978685887,"55":-0.07045432922888793,"56":0.00734448276254682,"57":-0.0630551621060042,"58":0.07219745958419077,"59":0.00520716095270529,"60":-0.08082552984192402,"61":-0.02100091592365951,"62":0.04954847253570785,"63":0.005751802685244593,"64":-0.03329498661027661,"65":0.0443438281783786,"66":-0.02144438955738295,"67":0.02200962987117399,"68":0.055575912091469136,"69":-0.0637966281066166,"70":-0.026002856084574377,"71":0.022904909128625153,"72":0.014303150344536223,"73":0.0483181199742911,"74":0.09092057966145911,"75":0.04433954776393292,"76":0.029304590228679924,"77":0.0034013891470402453,"78":0.06269730917613853,"79":-0.10187773400740707,"80":0.0867050758875476,"81":0.09486710878672705,"82":-0.07008348565465225,"83":0.05186902715468294,"84":0.07710406697391578,"85":-0.0478329669362094,"86":-0.06375123965060803,"87":-0.00680293448802461,"88":0.08707581644437018,"89":0.056530015105728026,"90":-0.004841721644981842,"91":0.001130321828741685,"92":-0.000546715811142379,"93":-0.010991037152214266,"94":0.045512434909971484,"95":-0.044756250440027054,"96":0.062144274792345265,"97":-0.03906866427913332,"98":-0.024581180950921693,"99":-0.019076927263483933,"100":0.03963969727171625,"101":0.0585756158557317,"102":-0.057841512497363495,"103":-0.008790072360443811,"104":0.07026411765156061,"105":0.1088723916284141,"106":0.06096817209671784,"107":-0.03047318498572119,"108":0.054262050122544814,"109":-0.01617695763267104,"110":0.03563200508505347,"111":0.05902805402828407,"112":0.002255858347329318,"113":-0.12365056409076897,"114":0.044490618434852615,"115":0.08575904021410706,"116":-0.025481972303030512,"117":-0.16095737128698342,"118":-0.0059779073781774375,"119":-0.04747303754128411,"120":-0.005251555187934291,"121":-0.11147485108567348,"122":0.031001608219898585,"123":0.04026616594927453,"124":0.024301463996179554,"125":0.03584156320488633,"126":-0.027381560897317744,"127":0.0630400143489308,"128":0.05039344284446997,"129":-0.0283247771794401,"130":-0.03333239825310884,"131":-0.02442257967601342,"132":0.070367010890144,"133":0.03895144048073274,"134":-0.10482038019289412,"135":-0.012420274839397576,"136":0.07441628859444166,"137":-0.07593197614507526,"138":0.013810693235414702,"139":-0.01904086091384228,"140":0.05545423494505721,"141":0.05910930010143053,"142":-0.04953722900399881,"143":-0.018667124216706934,"144":-0.052349875755917874,"145":0.059766059430887176,"146":0.13739347653992426,"147":-0.04637768651137938,"148":0.13113604063528514,"149":-0.04307325580747078,"150":-0.0916741199575827,"151":-0.0062551351336662155,"152":0.02915023574421102,"153":0.0641105185716835,"154":-0.0011800154682557278,"155":-0.06868361334300555,"156":0.004523054896230173,"157":-0.057826727978082915,"158":-0.002436668168542363,"159":0.06542068488949372,"160":0.11807466368971796,"161":0.020275048238506146,"162":0.11729516099422176,"163":0.036879278790909874,"164":0.029286586732332448,"165":0.0023575321702453207,"166":-0.1159150216416217,"167":0.058538549841393304,"168":0.0017915568265387436,"169":-0.09190714650589304,"170":-0.00576424105400096,"171":0.05822077927040175,"172":-0.035107152725198765,"173":0.019205369528875034,"174":0.0767986258784129,"175":-0.06488606889646914,"176":-0.025687798835712997,"177":0.0033809351184430386,"178":0.07460783811828726,"179":-0.030749141362093252,"180":-0.05184474059207833,"181":-0.0527168010060605,"182":-0.007686449674798265,"183":-0.05591131997045609,"184":-0.09133858041197772,"185":-0.07822083140232673,"186":-0.05641274813981061,"187":-0.10298083885276933,"188":-0.019410430487541812,"189":-0.06357845040624645,"190":-0.024922437573420348,"191":0.04770089717794626,"192":0.0330413681711139,"193":-0.016502318314715523,"194":-0.034757261334597604,"195":-0.06335454063633691,"196":0.09234590930556268,"197":-0.0017830715295582681,"198":0.005135783735775328,"199":0.01909884282661608,"200":-0.026624569637332,"201":-0.03794594610865661,"202":-0.11248817425011047,"203":-0.03845554293846639,"204":-0.004251460036113745,"205":-0.06927736306414241,"206":0.0818278941341724,"207":0.03828774949236308,"208":0.06833465495086032,"209":0.018183051334731404,"210":0.003853214658523424,"211":-0.0265300484744627,"212":0.05166821662795662,"213":0.11995113374633853,"214":-0.04048808290363703,"215":-0.049049301688443375,"216":-0.02970748357032739,"217":0.0678045580373527,"218":-0.036660809170437944,"219":0.009240322752829374,"220":-0.021588925762948675,"221":0.050635251551128475,"222":0.055532570258351975,"223":0.0441602320271802,"224":-0.07485602839690415,"225":-0.00925114299874115,"226":0.03606940106202918,"227":-0.02177789588868387,"228":-0.01784465701343324,"229":-0.05673749863619188,"230":0.006340001839518529,"231":0.037209569368927435,"232":0.005873217125149965,"233":-0.12965493486474242,"234":0.02715497696531019,"235":0.03963367681168496,"236":-0.018965779710910322,"237":0.027691429172454533,"238":0.05427119211088771,"239":-0.0044416164092576736,"240":-0.09552657865065979,"241":0.07102499295980208,"242":-0.06385029241935589,"243":-0.0024983157451855787,"244":0.0460463989725808,"245":0.02605504450417892,"246":-0.0015927755159513522,"247":-0.06594181286970714,"248":0.10462591429511972,"249":-0.011063308410579863,"250":0.07625572555455937,"251":0.023027296741263057,"252":0.0048738038337131275,"253":0.02324985535904153,"254":0.002431040656092476,"255":0.005386603128929075,"256":0.008539353985407972,"257":0.003277206663176066,"258":-0.03237530134412717,"259":-0.10059654890036093,"260":0.08877109499041466,"261":0.005668593005587543,"262":-0.03721932727150527,"263":0.07360133137488331,"264":-0.07217324519805264,"265":0.08814473999769422,"266":-0.019710677934454853,"267":0.013638395640807075,"268":-0.11235466513202616,"269":0.03448443058442429,"270":0.0393535544651787,"271":-0.06863040491786356,"272":0.029978911528696903,"273":0.04945463423352458,"274":-0.04731985287461371,"275":-0.12145642623704564,"276":0.055449105992097944,"277":0.019557467320452358,"278":0.0109319828667437,"279":-0.05045401295142366,"280":0.013689771848692226,"281":0.02389200122350766,"282":-0.05544125377876948,"283":0.03344887427363258,"284":0.02735925087524415,"285":0.004466533835233564,"286":-0.013143223156766491,"287":-0.03968378329345772,"288":-0.09239385740724639,"289":0.03646542468467401,"290":0.012560967896569325,"291":0.025832475004920436,"292":0.03300829680513664,"293":0.08006895007607476,"294":0.07370965368578988,"295":-0.09172549375035075,"296":0.06909477845740444,"297":-0.024015421733055205,"298":-0.026845928279485277,"299":0.07120537645468838,"300":-0.021032028628570308,"301":-0.0010387886405810783,"302":0.020779608688916734,"303":0.09555922441275777,"304":0.003254760124296283,"305":-0.05019836191472023,"306":-0.005235193462849105,"307":0.07971220667350469,"308":0.0027698224641080314,"309":0.004096698602066721,"310":-0.016503658667213227,"311":-0.03548765257970154,"312":-0.013305575554356797,"313":-0.04116682198594486,"314":0.002068860902183916,"315":0.01164649278344608,"316":-0.06886301444295002,"317":0.021116163401796752,"318":0.05006065389372549,"319":0.0019766059663708837,"320":0.01855462938472911,"321":-0.05363273267376872,"322":0.02922936198086821,"323":-0.10107614658643814,"324":-0.0009494792703343708,"325":-0.1541523937500753,"326":0.0030040904508884547,"327":0.024639843444325547,"328":-0.0017275171814406156,"329":0.005256895566653883,"330":0.008562898567365326,"331":0.014354450294585505,"332":-0.06980540423500983,"333":0.0204737129680227,"334":0.01793138192119641,"335":-0.030694184018486996,"336":0.010564609554215924,"337":-0.03730729441521381,"338":-0.061934021028453856,"339":0.027274703443042402,"340":-0.0685349539174886,"341":0.0008785475727159927,"342":0.04575303143171416,"343":-0.03757376323874714,"344":-0.10319046374535368,"345":-0.0535901116400224,"346":0.0010381612229024544,"347":0.07924510519118506,"348":-0.025269489638797583,"349":0.05946017875264264,"350":-0.03054740136200235,"351":-0.05138777128316335,"352":0.028432562556655036,"353":0.06879360594477887,"354":-0.10980170030979677,"355":-0.0006767404075505709,"356":0.01646059479496855,"357":-0.09948165699134362,"358":0.008910250654914381,"359":-0.06352486389681691,"360":-0.0716271089182781,"361":-0.01186862158224814,"362":-0.030538553594180756,"363":-0.04396396559647577,"364":0.03576265076315091,"365":-0.0030992418781239893,"366":0.07254169329978119,"367":-0.03271371152077563,"368":0.03044900723551403,"369":0.02862986971404124,"370":-0.015271893764626563,"371":-0.025097400231474557,"372":-0.003999093472957057,"373":-0.01715870132096997,"374":-0.02943515023040857}},{"sx":1,"sy":1,"depth":375,"w":{"0":0.030872232959571054,"1":-0.03047528273100478,"2":0.011435415674179194,"3":0.011003006528472496,"4":-0.09980041904778574,"5":-0.0551497369414019,"6":0.015035214656590306,"7":-0.05412426221433431,"8":0.051980270676394214,"9":-0.01722888896756939,"10":0.01056168258573183,"11":0.014989827314451956,"12":-0.0311020723731421,"13":0.09957074797595775,"14":0.0039987388164697615,"15":-0.018069638660604043,"16":-0.044116623412107384,"17":-0.0361471302441285,"18":-0.015986893124851034,"19":0.016799833941403584,"20":-0.02582704396702587,"21":0.02697457220279833,"22":0.09660187359699444,"23":-0.00376627836503319,"24":-0.06455625732481253,"25":-0.045072392966259596,"26":0.003903298431992306,"27":-0.025926897616667333,"28":0.06536197723081967,"29":-0.04489776922571726,"30":0.055048994275287665,"31":0.07108474142335197,"32":0.021868036360969945,"33":-0.02573488726940514,"34":-0.0641350599330108,"35":0.0027084163966104306,"36":0.07908031073261684,"37":-0.10902081237883447,"38":-0.02115726940842399,"39":-0.008041465952917768,"40":0.04513286199527096,"41":-0.09368803192283207,"42":-0.051080509796872314,"43":0.016789794728778472,"44":-0.04708927246850629,"45":-0.02909132333070778,"46":0.008579994837815602,"47":0.02785981821138296,"48":-0.020863827837636937,"49":0.029341704730128385,"50":0.04022475006835679,"51":-0.07867112523481067,"52":-0.0028764329298796056,"53":0.0018074658753365908,"54":-0.06133381713989111,"55":-0.03863766083862156,"56":0.04530948068238912,"57":-0.04333786990472704,"58":0.06291941914841055,"59":-0.015628323207646934,"60":-0.06167854662889645,"61":0.018070146796294165,"62":-0.017803971755131393,"63":-0.04044337508401332,"64":0.06632335354607598,"65":-0.010830832674520872,"66":0.058752598983575405,"67":-0.01972050856119276,"68":0.05079315748098366,"69":-0.02224079273182914,"70":0.03710689287940729,"71":-0.04283861990111726,"72":0.02989995276661683,"73":0.005110832373192304,"74":0.016446675029421026,"75":0.011418609594123719,"76":0.009638953447618222,"77":-0.025804910916483355,"78":-0.024026103334678296,"79":-0.029752349472263007,"80":-0.09054389750571096,"81":-0.015463939487642313,"82":-0.092795760045607,"83":0.02210437128907824,"84":-0.020414048903589072,"85":-0.09585845549063321,"86":0.023661049673597095,"87":0.05652186739081607,"88":0.05961095751824619,"89":0.15817849598939673,"90":-0.04916936806460929,"91":0.059220850009183236,"92":0.008935930240668934,"93":-0.010719990421146316,"94":-0.0027140438653785377,"95":-0.05396882029339812,"96":-0.03558614040467783,"97":0.007768562558020764,"98":-0.0037264702967463375,"99":0.01723061096153884,"100":-0.04648381188003803,"101":0.0361710979667261,"102":-0.008425653037867558,"103":-0.059311242445400744,"104":-0.012598165723781031,"105":-0.07569693517419908,"106":0.02274644098264083,"107":0.044959643563790674,"108":0.0216477192180651,"109":-0.028436691778349614,"110":0.06144550075326794,"111":-0.058180135578774425,"112":0.06005302117294452,"113":-0.09061429372695332,"114":0.001880707118165224,"115":-0.021558263789855366,"116":-0.08808443271216965,"117":0.032940794598608734,"118":0.012715456590823704,"119":-0.040332820506716736,"120":-0.01591136651489142,"121":0.02655509878922075,"122":-0.029023781645855777,"123":-0.01319939198618565,"124":0.023734203678290936,"125":0.0719624559182752,"126":-0.025733795078866264,"127":-0.08488246187095014,"128":-0.001435132062101893,"129":-0.032464448651025164,"130":0.06245131028669604,"131":-0.03254871640351339,"132":0.006858095659511896,"133":-0.024841496852055327,"134":0.0833042527519496,"135":0.00791830890909341,"136":0.019995752945366985,"137":-0.06384110494305076,"138":0.08638363537748099,"139":-0.042912224693393564,"140":0.04867329237366312,"141":-0.037650707913618034,"142":0.006018469806134724,"143":-0.052457043452865615,"144":0.14352176052168986,"145":0.00843337385715035,"146":-0.008388776660091293,"147":-0.0516659339243496,"148":-0.06563917847772596,"149":-0.00008333848590148148,"150":-0.014826006987437945,"151":0.12221329399775117,"152":-0.05500088373343677,"153":-0.02736170275313321,"154":-0.0007563636827621711,"155":0.03142194102210601,"156":0.00917691370326259,"157":-0.03217395368319345,"158":0.02923214805078346,"159":0.10602937190591226,"160":0.03429033543158317,"161":0.01970879250607897,"162":0.012866090281781581,"163":0.06062749224271608,"164":-0.023558430386443122,"165":0.025104403431310277,"166":0.007738542327439984,"167":-0.05770373098098729,"168":0.15255392248821853,"169":-0.058938401806488364,"170":-0.1114961197485691,"171":-0.06191138421458108,"172":-0.023729730133786535,"173":-0.05248641509201191,"174":0.03175929907323094,"175":-0.06406353909348722,"176":0.04002058429171495,"177":-0.07223322190985315,"178":0.07669175605851154,"179":0.025217200961901134,"180":-0.09421829821522594,"181":-0.02193070943288721,"182":-0.01551140158474368,"183":-0.17554713437217417,"184":-0.035733328548953565,"185":-0.033991783651274594,"186":0.03930499588291696,"187":-0.06998683463888272,"188":0.0007825297067388916,"189":0.0027123443872521056,"190":-0.05355152021917972,"191":-0.11833554773176191,"192":-0.02840570545857739,"193":0.08057548991441967,"194":-0.01743894428400747,"195":-0.07646320862536574,"196":-0.020893793575264125,"197":0.11142163232798606,"198":-0.014204762746765767,"199":-0.06624273961059035,"200":0.05732865121351583,"201":-0.05046666482063867,"202":0.057716777709397614,"203":-0.011576577747839854,"204":0.060607248096700046,"205":-0.03084208350825262,"206":-0.00022574294111406864,"207":-0.004920984546355427,"208":-0.004229592559849226,"209":0.05037905198738791,"210":0.01682853339167102,"211":-0.040831816571687204,"212":0.02390106671785819,"213":0.035350834342221846,"214":-0.0004922425877677175,"215":-0.029764081764813342,"216":0.08341119971032916,"217":0.006588444752848343,"218":-0.10882523104168078,"219":0.01769066006864712,"220":-0.04971019141488877,"221":-0.059169746664364496,"222":0.00413783655640734,"223":-0.019477173408813567,"224":-0.034658796147508705,"225":-0.009226319425284554,"226":-0.04953159225254988,"227":0.033648475506759985,"228":-0.057748638036631085,"229":-0.00013670631297990702,"230":-0.04856900150175756,"231":-0.01020952829204395,"232":-0.019768620034420436,"233":-0.06850118873673791,"234":0.009719618380086711,"235":0.0235858293464614,"236":0.05478204486783184,"237":-0.012525008905796445,"238":-0.012174258481710184,"239":0.012217070342424419,"240":0.03191068907502355,"241":0.004272663986327759,"242":0.0387676898886589,"243":0.01147127568581238,"244":-0.03281652534877516,"245":-0.0163292013780092,"246":0.042005416058510645,"247":-0.020130262665765807,"248":0.058452127156111026,"249":0.004000607221045196,"250":0.048043348530579004,"251":-0.057433229268392276,"252":-0.03939543926977176,"253":0.021471317403657878,"254":-0.054799274113408986,"255":-0.09154773928276916,"256":-0.07994421601776036,"257":-0.018095376115190947,"258":0.013182850170930713,"259":0.013584890331951885,"260":0.011720759894090433,"261":-0.09264380202176305,"262":0.00186594636844846,"263":-0.02839405801685504,"264":0.021733876852625303,"265":0.0501912427411482,"266":0.09115941288352516,"267":0.0599157405172305,"268":0.014759818306667491,"269":0.05004394510265698,"270":0.0419471222796318,"271":0.047476698001176834,"272":-0.04907797685952969,"273":-0.04243228662565101,"274":0.06522859174782973,"275":0.020690528748947917,"276":-0.06646075355145041,"277":-0.06673002112287241,"278":-0.08962302909402788,"279":-0.06055304643395317,"280":0.003113677201898481,"281":-0.033282112325717435,"282":-0.03270570742501528,"283":0.010320027208470793,"284":0.003894867740018143,"285":0.0760544556065736,"286":0.0034354210121928914,"287":-0.04950894227670116,"288":-0.02145574652803447,"289":-0.01166363317084935,"290":-0.02644912215357179,"291":0.03301623406470457,"292":-0.013482756337750576,"293":0.04644471035655067,"294":-0.0006844312799606741,"295":0.001285311150014614,"296":-0.020151425242026604,"297":-0.020032915813678442,"298":0.03850163670216018,"299":-0.03437270843146703,"300":0.020229426932550462,"301":0.03897478033515839,"302":0.024599624611204317,"303":0.023600522718446773,"304":-0.002516331954266239,"305":-0.09892588309384885,"306":0.08615451311746751,"307":0.0700411620309317,"308":0.006661722256036373,"309":0.02412604600021886,"310":-0.06933229584708644,"311":-0.04043513693592566,"312":0.014966848814228766,"313":-0.009075573146627216,"314":0.06626494999963746,"315":-0.06452878354915041,"316":0.0019043106862996068,"317":0.02275851074249946,"318":-0.0428266097401732,"319":0.03469088109418837,"320":0.021602701101852365,"321":0.045793532012903496,"322":0.13884785473178693,"323":-0.00928591929282032,"324":0.0408155821028527,"325":-0.04785287979741608,"326":0.07929108166025947,"327":-0.09228040272177108,"328":-0.042721304374437157,"329":-0.0010735602477739154,"330":0.04830986246906062,"331":0.020239767944392258,"332":0.022827127781816017,"333":-0.0063415535505364,"334":0.0039575129886167725,"335":-0.041437927596734724,"336":-0.08611758962286102,"337":0.01749606531734254,"338":0.021455137560444624,"339":0.021830786437267827,"340":-0.02874694512371615,"341":-0.05578139514261599,"342":-0.047183933369198766,"343":-0.05851892700602075,"344":0.013525094904440307,"345":-0.04311787410307637,"346":0.01919414189842962,"347":0.09028725024014156,"348":-0.005137377311682991,"349":0.07408256411088371,"350":-0.050596553740232135,"351":-0.052472060421039975,"352":-0.0418828370302577,"353":-0.02739890580915941,"354":0.048769688339712666,"355":0.09712855528941154,"356":-0.049941206479381405,"357":0.07202346227010438,"358":0.0714584403182349,"359":0.042735599592268136,"360":0.010826498223313148,"361":0.007793415914617115,"362":-0.05605102229621873,"363":0.031005706101103796,"364":0.05314173086800601,"365":0.016255588261537578,"366":-0.03540665592214011,"367":-0.0014323905421904663,"368":-0.014284689806567486,"369":-0.07093333787805904,"370":0.011796750562063208,"371":0.015192997191065854,"372":-0.07277710493803954,"373":-0.06936390212481058,"374":-0.05441118649062791}},{"sx":1,"sy":1,"depth":375,"w":{"0":-0.010393172735450063,"1":0.05232133779130301,"2":-0.0058632071882036224,"3":0.0032852874416670654,"4":0.04083773500195996,"5":-0.08664320944613242,"6":-0.015774898575195765,"7":0.045871615407706456,"8":0.03312978649659524,"9":-0.045200440210725105,"10":0.09718978244491455,"11":-0.06936333582448166,"12":-0.08462222982885949,"13":-0.03152590510764287,"14":-0.0011098642669626463,"15":0.044224246349146505,"16":0.02726206404099637,"17":0.001388105831573678,"18":-0.0014507540627585365,"19":0.050026739877595636,"20":0.027751116894202194,"21":-0.09766495834179545,"22":-0.03345371503761678,"23":0.08058352361046296,"24":-0.04950711200627832,"25":0.005495639257509164,"26":0.03111354835389164,"27":-0.0505528790941071,"28":0.0028866000620181753,"29":-0.0595074774215656,"30":0.0069845368773224425,"31":0.03305584869657157,"32":-0.08117189445032548,"33":-0.04878650878148003,"34":-0.0748978455613375,"35":0.04652160004438977,"36":-0.0403543903107566,"37":0.10981401670726658,"38":0.046313050158122385,"39":0.002355518210894874,"40":0.024915278611219904,"41":0.04272159988024206,"42":-0.013251100845795514,"43":-0.015579706191890674,"44":0.02166657623109786,"45":0.05388609912011958,"46":-0.05389231010318727,"47":-0.06195147233666068,"48":-0.05969063161429966,"49":-0.024466254422011995,"50":-0.03636051214771559,"51":0.012422427159426772,"52":0.07213133048674263,"53":-0.00989372953997594,"54":0.044495842015460314,"55":-0.08125594936667942,"56":-0.062406809135266354,"57":-0.036453871488324636,"58":-0.0032964178065129825,"59":0.041249004933233774,"60":-0.0194322870720629,"61":-0.04214771357163751,"62":-0.05376938915694975,"63":0.02069512545159345,"64":0.027926169480018217,"65":0.014951593821792139,"66":-0.013285160733986955,"67":0.039076275425172155,"68":0.025760106068584056,"69":-0.006192456763543342,"70":0.04657249441114831,"71":-0.040317165920227584,"72":0.0709949019079835,"73":-0.0046799156492875514,"74":0.07081933624087333,"75":-0.10422079885543377,"76":-0.041671043587301636,"77":-0.0905444744914904,"78":-0.014649029214781272,"79":-0.04028567162288359,"80":-0.005080012560385693,"81":-0.0764062961098798,"82":0.07246988319324356,"83":0.07102636532910005,"84":-0.04743426891053919,"85":-0.041611102451318924,"86":0.029910297200274143,"87":-0.05808556614450528,"88":-0.05256340627505144,"89":0.01241470345068908,"90":-0.010403007933960446,"91":-0.03431413740262433,"92":-0.047459775578446675,"93":0.04322599289817126,"94":0.012112257003134695,"95":-0.0463104392337821,"96":-0.08387674100866367,"97":0.016525468392596956,"98":-0.010289786995267523,"99":0.014702646754077104,"100":0.010928086442580016,"101":0.06474335401937786,"102":-0.055658056460408306,"103":-0.011004849073468848,"104":-0.06721205446469482,"105":0.025351278648042982,"106":-0.02106444604508318,"107":0.046534966633547135,"108":-0.061484288363556745,"109":-0.0274007442341831,"110":0.028208563003230144,"111":-0.03890700731796948,"112":-0.008850982440112733,"113":0.02585561667193666,"114":0.027258832905679556,"115":-0.03647684052279424,"116":-0.009790522625736223,"117":0.13193374431145757,"118":-0.06906836930695719,"119":0.01498780975300362,"120":0.021126460576351692,"121":-0.008803595215797077,"122":-0.012220239628035204,"123":-0.08335258093791272,"124":0.036760758888145464,"125":-0.05648537122621659,"126":-0.006427051236036776,"127":0.027171927257264698,"128":0.012677917678465607,"129":0.012560998557325493,"130":0.03296728998210234,"131":0.011491808951842035,"132":0.05540338424885766,"133":-0.09713180969609897,"134":0.03357906200713041,"135":0.04277025719960203,"136":0.09272573254206566,"137":0.04941468492117287,"138":-0.033220319831286475,"139":-0.0055747892449920285,"140":-0.023965624388790692,"141":0.11772296745075808,"142":-0.03845029619625758,"143":-0.029902480513671597,"144":0.030397956349717183,"145":0.07552096812533172,"146":-0.044834549459226665,"147":-0.004703130469715451,"148":0.08668023368615535,"149":-0.02511802113825506,"150":0.010061744027938241,"151":0.028310835514841353,"152":0.0808358445109413,"153":0.05662155611182533,"154":-0.028892190182884015,"155":-0.024925487323545537,"156":0.006878048997230451,"157":-0.025740140346923644,"158":-0.02615535461700156,"159":-0.02763704771053258,"160":0.04412137068322333,"161":-0.034725102585096264,"162":0.03795493909881783,"163":-0.08528113464413567,"164":-0.0028835794113072494,"165":-0.0429406425347277,"166":-0.07187089432074233,"167":0.028921299270433555,"168":-0.026226254143304036,"169":0.030476923046052228,"170":0.0014131277445451928,"171":0.015782116261152414,"172":-0.005639509765119902,"173":0.0305232745126275,"174":-0.03198619522940919,"175":0.014388830229117454,"176":0.04997017323340429,"177":0.028669255067902494,"178":0.0019459326185709072,"179":-0.0767009393983527,"180":0.00612180208239528,"181":-0.03019923813024201,"182":-0.031983598116361145,"183":-0.026445570457664862,"184":-0.0529112143076976,"185":-0.04585647808498037,"186":-0.12093970441000396,"187":0.00896653799344003,"188":0.05799818586373226,"189":-0.004505400767868554,"190":0.03664487839592281,"191":0.04320110687442003,"192":0.03715515652172356,"193":0.07541314845452676,"194":-0.025273270788486898,"195":-0.04903541415660393,"196":-0.07543519918197943,"197":-0.05779810997454433,"198":0.02537626365694987,"199":-0.10771050995136684,"200":0.00752798300140321,"201":0.011746504558064294,"202":0.017662474949029786,"203":0.05875616107581802,"204":0.011855025635851233,"205":0.015608138698826053,"206":0.06680624092766471,"207":-0.04077535338770578,"208":0.02045887788070459,"209":-0.044570962584080574,"210":0.10134344909081214,"211":-0.042592271649666454,"212":0.03808038645007565,"213":0.0445170647566019,"214":0.12173210111446212,"215":-0.03659485391117919,"216":0.1461970011058414,"217":0.05071463906218314,"218":-0.07088175190930679,"219":0.016116428660280308,"220":0.008141435145869538,"221":0.022037163224316866,"222":-0.0300723384737218,"223":-0.07137999368308573,"224":-0.04635729656171351,"225":-0.043643554081547034,"226":-0.0011681975500484867,"227":-0.023039117337505077,"228":0.07041039020745882,"229":-0.046942332672912354,"230":-0.018492653029775843,"231":-0.10591465123338623,"232":0.04976416704642223,"233":-0.12158968518835407,"234":-0.11932294191769481,"235":-0.04330174037899874,"236":-0.042616297028875726,"237":0.022467079785276987,"238":-0.006703257132651332,"239":-0.011110917083467639,"240":0.012402339064543176,"241":-0.03623884313813367,"242":0.058442501020362095,"243":-0.054028297187755495,"244":0.05984299371000633,"245":0.021532475599599084,"246":0.018597912911956713,"247":-0.007469001024021316,"248":0.03171042132324867,"249":0.04513881705250991,"250":-0.08492092353076049,"251":-0.011758399402747803,"252":-0.0028659325779040253,"253":-0.09541421933117088,"254":-0.10276057818465817,"255":0.0620013077472306,"256":-0.02600707741101926,"257":-0.0641784050530319,"258":-0.01286690725717096,"259":-0.060482317546648824,"260":-0.05866372254225735,"261":0.004221883201373337,"262":0.007141797743414173,"263":0.05282526882831376,"264":-0.03308896863919201,"265":0.036505830348162176,"266":0.09695307708885456,"267":0.003772699732197643,"268":-0.00816326859064495,"269":-0.016995707021002508,"270":-0.03335051365431619,"271":-0.0732939947753151,"272":-0.04947832267337675,"273":-0.007782846051233736,"274":-0.09963536771505589,"275":-0.007266363932197459,"276":-0.03695247998029443,"277":-0.02898745990309597,"278":-0.09378487939203292,"279":-0.025255483366420983,"280":0.04159801969418228,"281":-0.0024508888142840647,"282":0.03533735790679864,"283":0.05172385610960853,"284":0.07775424568665916,"285":-0.06660025146539432,"286":-0.005948555545004084,"287":-0.06023810490330805,"288":-0.01098195712421396,"289":0.07270576869182675,"290":-0.05238027323747965,"291":-0.010293327906787208,"292":-0.0050289149536673055,"293":-0.05654360522305606,"294":-0.04468531999029405,"295":-0.05108022602264313,"296":-0.0918094202308173,"297":0.051958030347311335,"298":0.010417274852161866,"299":-0.05209953331329672,"300":0.06469985005679911,"301":-0.030114844528258355,"302":-0.0330991710314498,"303":0.018512334018494392,"304":-0.11101722569786547,"305":-0.037069356794672145,"306":0.013884507725366124,"307":0.08017927065704507,"308":0.05338219341206646,"309":0.008551134909247417,"310":0.02371349157077546,"311":-0.00006636858405240004,"312":-0.0011512930195201245,"313":0.06229754403030775,"314":0.03789566807627869,"315":-0.010571055849475108,"316":-0.012429737573358718,"317":0.04642819355228926,"318":-0.07590916170269375,"319":-0.028153466873946865,"320":0.04541758520571656,"321":0.061878016042697416,"322":-0.04369759310787474,"323":-0.05256237898184994,"324":-0.0186021959622954,"325":0.05770037842680585,"326":-0.009022126848586292,"327":0.01351249072234694,"328":-0.04544226641189035,"329":0.03607029490654153,"330":-0.05190617176564604,"331":0.02562515118930117,"332":0.06387930454345735,"333":0.0073242742832425245,"334":-0.08514798313488334,"335":-0.1047004209281376,"336":-0.04577490618493485,"337":-0.04558360322336525,"338":-0.028516910618697315,"339":-0.012542122381217187,"340":-0.017302267034113413,"341":0.011566259417772173,"342":-0.06384072189877185,"343":0.01565220708826561,"344":-0.026150254777000354,"345":0.05845676477232396,"346":0.026203799929115396,"347":-0.07373420669463276,"348":-0.07901073540242715,"349":0.004128346669503858,"350":-0.03176012285195103,"351":0.051254826479757806,"352":-0.06425698444874567,"353":0.009877472468740277,"354":0.07909154348151506,"355":-0.0008315550329589789,"356":0.044707323871215045,"357":-0.08925559687989848,"358":-0.052297681744087166,"359":-0.022569291964494715,"360":0.04776894544773982,"361":-0.04167366473759417,"362":0.02237074951684074,"363":-0.025688336968172343,"364":0.03942506765029871,"365":-0.009337560143463108,"366":-0.08847103586658185,"367":-0.04818169577330025,"368":0.04534877028191139,"369":0.05439817054283995,"370":-0.01991488941561991,"371":-0.034833045664580904,"372":-0.07428941404668066,"373":0.007728170190162854,"374":-0.024297834813722503}},{"sx":1,"sy":1,"depth":375,"w":{"0":-0.025844377513433478,"1":0.04572918403778113,"2":0.03285240690955023,"3":0.04764183755320778,"4":0.006938468137189828,"5":-0.015899151026726375,"6":0.041872655844725104,"7":-0.009691132015926246,"8":-0.05706499412738594,"9":0.005613207296609843,"10":-0.13078359281290072,"11":-0.017301142464303858,"12":0.045105431897552395,"13":0.0013197005859360675,"14":0.08486533226779339,"15":-0.05055789140513935,"16":-0.039725057575276834,"17":0.01775379120292561,"18":0.022241339865554217,"19":0.0023431626538828253,"20":-0.020120717825716145,"21":0.07323655583527475,"22":-0.009627084787904553,"23":0.02505036353975565,"24":0.03191967118056547,"25":-0.08654873913569124,"26":-0.027285642847392936,"27":0.06518374238794677,"28":-0.011788615582205649,"29":0.0007394323764800713,"30":0.07343497636039067,"31":0.01973077520976728,"32":-0.00635105196578147,"33":0.1443377278678201,"34":0.0014184075962432464,"35":0.010711932337419171,"36":0.013369283776761347,"37":-0.012319017387803404,"38":0.06356987430861291,"39":-0.000612011034754423,"40":-0.03678200614834718,"41":0.01262588366787353,"42":-0.009227845706778396,"43":0.031574481519769555,"44":0.087783318002859,"45":0.025581891839984373,"46":-0.08759444245697343,"47":-0.11274678073474317,"48":0.020552553990952252,"49":0.01131867058805684,"50":-0.07861238009358391,"51":-0.025232761013241567,"52":-0.016627151738714947,"53":0.0035387767795354323,"54":0.07978458194770223,"55":-0.0251707514562224,"56":0.030531894062687845,"57":-0.0004956327145670595,"58":0.055783397790913465,"59":-0.010135408626724416,"60":-0.0454496286879678,"61":-0.019486763045851722,"62":-0.01145672625389541,"63":0.10835140730491827,"64":-0.045666052284963295,"65":-0.02342479086617033,"66":0.05286093596956294,"67":-0.05278600243065008,"68":-0.07740858905181522,"69":-0.015067823004760226,"70":-0.013904805179220148,"71":-0.08501390660212563,"72":0.03664885320029176,"73":0.030586316670163666,"74":-0.01855722913345519,"75":-0.08184857695624483,"76":0.015117525095853178,"77":0.010696267737042756,"78":-0.08153020107115504,"79":-0.02211367436129651,"80":0.06040291864697839,"81":0.01630468700447571,"82":-0.0022306332999602416,"83":-0.050038564155717426,"84":-0.06414896393758536,"85":0.019072789990271403,"86":-0.05870168728332188,"87":0.04882340238075668,"88":0.04693873906037193,"89":-0.008648162836522597,"90":0.07392423825359386,"91":0.011994948742273213,"92":-0.12512033339218792,"93":0.08417176314164798,"94":0.0057949001868785235,"95":0.03422121289500518,"96":-0.011777911783258767,"97":-0.01961790351670882,"98":0.09712638324857764,"99":-0.03685880651962388,"100":-0.010730389883956415,"101":0.020823178268128864,"102":-0.053001863545138195,"103":-0.03627375479067691,"104":-0.017913945615171876,"105":0.019123302648802753,"106":-0.04192366840178908,"107":-0.05181232962294851,"108":-0.007906683137033299,"109":0.015484271929896827,"110":-0.012387254590453579,"111":-0.05406095347351933,"112":0.028030665872253648,"113":-0.009931321245920976,"114":0.01773286971760348,"115":-0.022278989983409898,"116":0.049736885514404285,"117":0.016034975888607972,"118":0.09514466013643745,"119":0.014067479329603878,"120":0.015199705597330478,"121":0.010367277901267114,"122":-0.10265306756577885,"123":0.057107034634503034,"124":0.01913458573465442,"125":-0.017703317151676834,"126":0.022340720899377477,"127":-0.06420278586442496,"128":-0.01596612411043818,"129":-0.04493269432818188,"130":-0.12172668721796055,"131":0.005440184355771317,"132":0.04312063137460463,"133":0.054126510976047204,"134":0.0018666738854798018,"135":-0.14836741441222753,"136":0.07896496325099585,"137":0.0329688858452653,"138":0.022125301440119708,"139":0.029441873858452577,"140":-0.0528549660881342,"141":-0.14067510972106495,"142":-0.05763398878459704,"143":0.018576611297833223,"144":-0.009262503563134817,"145":-0.012598747674142204,"146":0.007512451033280078,"147":-0.05286850765550258,"148":-0.04157017426279928,"149":0.00014957920577951636,"150":0.0835532278065204,"151":-0.05559805322064914,"152":-0.02371259672685577,"153":0.031549545279651404,"154":-0.03304893672181023,"155":-0.044346583199491044,"156":0.0018495151114811452,"157":-0.05071270224270338,"158":-0.058104628708999254,"159":0.0513959811713119,"160":0.05198534612885261,"161":-0.020543500655988523,"162":0.015513073082029032,"163":-0.03472613398796384,"164":0.004875868947292782,"165":0.07630950453616103,"166":-0.07791655742094741,"167":-0.0702859876507355,"168":0.02452517739283091,"169":-0.0866554327727538,"170":-0.01123743965390458,"171":-0.05489153772631029,"172":-0.1158966596074907,"173":-0.02041607680635184,"174":-0.052975353508882994,"175":-0.04037874921042261,"176":-0.021521387387078577,"177":-0.0603601950066749,"178":0.032917502003497905,"179":-0.02690843749638692,"180":-0.029712829861309808,"181":-0.08303180838708649,"182":0.05730142047358686,"183":0.006008352852349399,"184":-0.030676457892467063,"185":-0.03303472544504468,"186":0.024155865696299326,"187":0.03813735250072011,"188":-0.09612033945407188,"189":0.026426682573012415,"190":-0.02741797649586656,"191":-0.08117427406082987,"192":0.11745325381332299,"193":-0.09105504603078476,"194":-0.14542504380932222,"195":-0.04182190138394089,"196":0.05632892655373535,"197":0.008236613470768437,"198":0.07790397777356886,"199":-0.02157633620536045,"200":0.022091316933839433,"201":-0.016051240385240573,"202":0.028657487598217655,"203":-0.0077347909926440295,"204":0.01510921330214254,"205":0.08097189720798297,"206":0.03800894677865434,"207":-0.07629021354866136,"208":-0.013945535283762614,"209":-0.06261216050567579,"210":0.05370772463593559,"211":-0.05791373756061221,"212":0.07624574599805908,"213":-0.010061736134481292,"214":0.0462428200949567,"215":0.04792871910881511,"216":-0.04828140915020289,"217":-0.05572818637012672,"218":0.026398056069337927,"219":-0.0017680270706479267,"220":-0.015233342359596617,"221":-0.008321648029147352,"222":0.05656435357197131,"223":-0.05960841779426293,"224":0.08894311961417509,"225":-0.05918525891027605,"226":-0.04770943335063952,"227":-0.026358740206864018,"228":0.09469569761744538,"229":0.0284575848253543,"230":-0.05524727562062464,"231":0.07978768571746617,"232":-0.007816965422395065,"233":-0.018447614264093585,"234":-0.002246607320325481,"235":0.015434595884603249,"236":-0.006413112959944437,"237":-0.0612136572370823,"238":-0.03363080939395018,"239":-0.035382010848587504,"240":-0.11039981355247752,"241":0.014817765495033297,"242":0.03966455425339505,"243":-0.04862914022299508,"244":-0.05697110427348113,"245":-0.008177058212101292,"246":-0.04055393984373093,"247":-0.03616548571522755,"248":-0.0521702680800853,"249":0.03055454270663099,"250":0.03235997162704514,"251":0.01887374603033099,"252":-0.0005869468894259278,"253":0.0013709620478907381,"254":0.006708696955135798,"255":-0.05748970109244722,"256":-0.04508194076030368,"257":-0.013629560666890167,"258":-0.005642952285446207,"259":-0.0330401816916851,"260":-0.05210628110690584,"261":0.022306603076601962,"262":-0.07071809303151738,"263":-0.014611095567777272,"264":-0.012854152464096394,"265":0.012498493818993968,"266":0.02427181085739765,"267":0.03531512918987154,"268":0.0060776772963115145,"269":0.013081845439625218,"270":0.07037063488152831,"271":0.05809059049244483,"272":-0.009515578970022358,"273":0.023086255737749896,"274":0.07862734389025491,"275":-0.06947560457428306,"276":-0.035897320549208835,"277":-0.06614907258806665,"278":-0.05551078207363396,"279":-0.04327081076226111,"280":0.04384835962678889,"281":0.002766344720795953,"282":-0.011498922973683762,"283":0.10352518687400483,"284":-0.10186051735536088,"285":0.04320856390809601,"286":0.005569338539479402,"287":0.07743157843980017,"288":0.028871431505862195,"289":0.14106965199069935,"290":-0.03139589385673907,"291":-0.04057801270823929,"292":-0.031621266080465886,"293":0.041305202763594916,"294":0.03046334740334106,"295":-0.07284658650981893,"296":0.024674175323444385,"297":-0.0530082118668395,"298":-0.017357723186974667,"299":0.05446728404798423,"300":-0.053414481020017196,"301":-0.042851235522659493,"302":0.05020509290732642,"303":-0.024321536913748523,"304":-0.05349739704190751,"305":-0.07370894316426484,"306":0.04325593675120214,"307":-0.07694373200181126,"308":-0.049175088846361015,"309":0.05487299007543056,"310":-0.04373716091951603,"311":0.015188624729815914,"312":0.023734492736887002,"313":-0.09137564286136812,"314":-0.02910363927101453,"315":0.00226228498021733,"316":-0.007372912563603394,"317":-0.15973780341775778,"318":0.06568422329903299,"319":0.00924499489339833,"320":0.03477185357305626,"321":-0.021005887122511384,"322":-0.008249141102440296,"323":0.10359101716797345,"324":0.06512664804726437,"325":0.061784337312667574,"326":-0.028613666172318225,"327":0.12350760950376115,"328":-0.021360861459991085,"329":-0.02073968663849133,"330":-0.04950792087585001,"331":-0.004409686301446473,"332":0.02238186631137146,"333":-0.050732822763935564,"334":-0.007477605220766218,"335":0.08528726646653559,"336":-0.00433773713506465,"337":-0.04448616635041525,"338":-0.05512726958357708,"339":-0.11174088993650091,"340":0.03671960444470491,"341":0.03871972238499568,"342":-0.07890839716240804,"343":0.006699755023005255,"344":-0.04367388529209348,"345":-0.08818278415554405,"346":0.05729507624432109,"347":0.15065542112707234,"348":0.04041130104371933,"349":-0.03574362037705783,"350":-0.05546757917375016,"351":0.038321548414294165,"352":-0.014169993067458328,"353":-0.0018101098672331792,"354":-0.02450833300322606,"355":0.016535152612589192,"356":-0.05418913386766113,"357":-0.015476412817751627,"358":0.021583256753088764,"359":-0.07757710547099088,"360":-0.013613513802313524,"361":0.02433827402455769,"362":-0.008816901838182485,"363":0.023708192492345754,"364":-0.05814250808748672,"365":0.022682635634113827,"366":0.010173272864027826,"367":-0.02885101416819433,"368":-0.09017156997812827,"369":-0.05414189504068064,"370":-0.011800177271700692,"371":-0.034880309259755986,"372":0.01308450436639044,"373":0.0038914625285631165,"374":0.019410435012149695}},{"sx":1,"sy":1,"depth":375,"w":{"0":-0.023770220780266468,"1":-0.07111223904547684,"2":-0.03340282984918706,"3":-0.019672407066606754,"4":-0.10620543342247124,"5":0.05638008092185278,"6":-0.050036153621921375,"7":0.09591594846461848,"8":-0.04049735815947555,"9":0.05159088189131721,"10":0.008096389453128376,"11":-0.029870762115207044,"12":0.025249529231319068,"13":-0.007035093281664858,"14":0.00986535156556898,"15":0.04287188116771793,"16":-0.0429041501260638,"17":0.10712079249069738,"18":0.06650092862005719,"19":-0.027229400568733454,"20":-0.05690159382202527,"21":0.04164224983276907,"22":0.006071662362518934,"23":-0.026911044318806417,"24":0.16837109544667755,"25":0.04296348696758282,"26":-0.07439493946740183,"27":0.01743045911374153,"28":0.041949928574056536,"29":0.05268889476073904,"30":0.05489636973062837,"31":0.015775771592818823,"32":0.08648807473850076,"33":0.0891999259991409,"34":0.030521693400182612,"35":-0.06152577799092054,"36":-0.01832050598033652,"37":0.09036126895711974,"38":-0.013512823922489097,"39":-0.014753596810293463,"40":-0.08026075634410733,"41":-0.029971263768134145,"42":0.008039860334214445,"43":0.02164844168950028,"44":-0.13985594462922632,"45":0.16970648315054454,"46":0.021424447474606714,"47":-0.05019959629808013,"48":0.014072021822632716,"49":0.08041450513567973,"50":-0.04838751169192123,"51":0.08533134946716728,"52":0.02186065875796611,"53":0.025851131115925394,"54":0.06165395786629693,"55":0.08381720831995548,"56":-0.09064829448710902,"57":0.09618870455740886,"58":0.11753418090060315,"59":-0.08959154197280948,"60":0.0509269561508888,"61":0.0627214624815352,"62":-0.09617916426003831,"63":0.07516717977259811,"64":-0.013425969329122467,"65":-0.02963705032541107,"66":-0.0537479367822904,"67":-0.018991122307154343,"68":-0.004596785953287852,"69":0.03626767628128818,"70":0.00398416002898753,"71":-0.06683946154305319,"72":0.078787462641872,"73":-0.027673969417832893,"74":-0.11284989946314244,"75":0.14125614849706217,"76":0.09861776679617258,"77":-0.046305303951283544,"78":0.07765489388821596,"79":0.08795276240397805,"80":-0.0884661476822341,"81":0.0506341947085848,"82":0.12184956887187702,"83":-0.07088673339756224,"84":0.09693751983515651,"85":0.021415250942786544,"86":-0.05914231500369727,"87":0.1850392097403419,"88":-0.046878193031972534,"89":-0.06613786211926714,"90":0.016785550071411966,"91":-0.05949929761648646,"92":-0.030811923929067193,"93":0.13034694206483702,"94":-0.043750083266349764,"95":-0.01086571297846719,"96":0.015566225851396687,"97":0.004364114566466326,"98":-0.07942407419116236,"99":-0.09306446329234933,"100":0.05084205052407872,"101":-0.034410938540614985,"102":-0.06937500963858999,"103":0.05584635750529979,"104":0.02367472368997908,"105":0.018445486762180687,"106":-0.05219354566931559,"107":-0.08525376772776438,"108":0.016618283831297195,"109":0.052999701336412554,"110":-0.08489380480984071,"111":0.07509126118798921,"112":-0.041693318928922515,"113":-0.10193716045632027,"114":-0.013441291572610025,"115":0.08189236761785224,"116":-0.04229325543262252,"117":0.033655597388554,"118":0.01726510073200048,"119":0.06550799097651996,"120":0.07795302297952605,"121":0.05188925010447475,"122":0.036198032830808614,"123":-0.021407789271262943,"124":0.020538007356953887,"125":0.054356306350694494,"126":-0.08896951411227484,"127":-0.0800067572732737,"128":-0.01471614161139425,"129":0.03451834427412697,"130":0.1197486950125104,"131":0.03794159792214063,"132":0.06968630101983427,"133":-0.041329622671614885,"134":0.0037360508222500223,"135":0.004627484582769458,"136":0.013975146138741464,"137":-0.1165416578390068,"138":0.03994155008270377,"139":0.0394602526880115,"140":0.04969973060523176,"141":0.05001234787868129,"142":0.04872394566283343,"143":-0.04887631032960863,"144":-0.054584545260160204,"145":0.010581444608557528,"146":-0.09762061968097234,"147":0.05743870015176321,"148":-0.10672319906121283,"149":-0.009346887678833593,"150":0.08164114760209484,"151":-0.08091431947962723,"152":-0.06134792696488099,"153":0.12580847847312687,"154":0.04279579391359098,"155":-0.15011639295269305,"156":0.050817776894574555,"157":0.0009431921854240698,"158":-0.0717115364997309,"159":-0.005068322360301033,"160":0.1058051765320155,"161":0.003008837385882092,"162":0.0075994302635362275,"163":0.09134944029041596,"164":-0.004508857459080942,"165":0.13198368653634718,"166":0.054857437153662855,"167":-0.006203592856864072,"168":0.11365994519568814,"169":-0.0317932902484735,"170":0.066690909375191,"171":-0.03343868272510373,"172":-0.03934948813975532,"173":-0.15323146670864207,"174":0.008404394747212713,"175":-0.0791328407781219,"176":-0.042421538682778766,"177":0.021777630964808985,"178":-0.006742558587500782,"179":-0.057221930749925196,"180":0.027122572931524428,"181":0.06689856531222146,"182":-0.0020931693618153266,"183":0.07931806892225592,"184":-0.002633411158048835,"185":0.06168610761179752,"186":0.039686734110108535,"187":0.01564930063342883,"188":-0.06643753067881003,"189":0.09158998614647632,"190":-0.08134609639912808,"191":0.13487369961103393,"192":0.0430006973017443,"193":0.011709021102282556,"194":0.02405385739564994,"195":-0.07288546578984686,"196":0.034592590899853934,"197":-0.06674554047413324,"198":-0.0026963507757071462,"199":-0.027312166475816583,"200":0.0007362494543205293,"201":-0.10515845140672034,"202":-0.015058990375365304,"203":-0.029116950159493123,"204":0.04999573208620938,"205":0.059047055579031726,"206":-0.05389329500375825,"207":-0.06900943402705086,"208":0.07427001163545738,"209":0.03567946336943801,"210":-0.06235270554345319,"211":-0.03139970741714948,"212":0.0008715854081971113,"213":-0.028353594654554518,"214":0.01627350962636152,"215":0.022406063132928228,"216":0.04335986401347973,"217":0.11098459689078516,"218":0.04678645725682752,"219":-0.09191211768856232,"220":-0.079395055473039,"221":-0.006033885637473899,"222":0.032415204498169634,"223":-0.027881874799892334,"224":0.050218969728419625,"225":0.08090708831448287,"226":0.1084048757543554,"227":-0.00008041104948919172,"228":-0.007669808888107474,"229":0.015378448281307109,"230":0.0387320426401031,"231":0.05385748451852372,"232":0.07156935889902281,"233":0.04577257097985279,"234":0.11546345925307343,"235":0.014487084582498028,"236":-0.07273388813270383,"237":0.04459906676432433,"238":0.027142611126169065,"239":0.0649775383220158,"240":-0.09289626064260666,"241":-0.028089294631354806,"242":0.008416313098320447,"243":0.02871888154869297,"244":0.031033314354724003,"245":0.011898721840815108,"246":-0.08486443113874266,"247":0.07297224257919797,"248":0.05176624980946945,"249":0.08417239777348545,"250":-0.07917961597110053,"251":0.09237438924900303,"252":-0.025625463557192488,"253":0.015643252944661616,"254":0.08839916059540348,"255":-0.03260805521114043,"256":-0.10145277748143808,"257":0.07086059837248915,"258":-0.038079165993060014,"259":-0.08516502631599486,"260":0.09675889205427625,"261":0.005722028844944032,"262":-0.03553753915952841,"263":0.06056226568804938,"264":0.09791630705213565,"265":-0.05320116261597621,"266":-0.029603772805321817,"267":0.05462907313030977,"268":-0.06642667672748094,"269":-0.02876303812838338,"270":0.02646166499075009,"271":-0.04500509465756758,"272":0.0011531006230758596,"273":-0.06228305984141118,"274":-0.09178210944345148,"275":-0.041958708591329774,"276":-0.0780999844536377,"277":-0.019642901706636972,"278":-0.08099688922893994,"279":-0.005724637543429598,"280":-0.01448562969773795,"281":-0.04623714247783856,"282":0.042096441634217045,"283":-0.011747305536356783,"284":0.009299758072405635,"285":-0.01570160566398182,"286":0.005131138071451088,"287":0.017149379492740608,"288":-0.04631317009171573,"289":-0.07565172391453229,"290":-0.031688690197695685,"291":-0.025914754648291047,"292":0.025562952008757425,"293":0.02661165571292736,"294":-0.08061131847608434,"295":-0.022924170396728397,"296":-0.03291993358135848,"297":-0.011696889754026173,"298":-0.035250838927570395,"299":-0.00798741774166314,"300":-0.054321362303691084,"301":0.0014898359067658019,"302":0.001135694396620938,"303":0.09749384580966376,"304":0.039703611807539986,"305":-0.07561495781612802,"306":0.004699882767879189,"307":-0.10910944828459407,"308":-0.01629125427646805,"309":-0.015223703442043894,"310":-0.0007308283790867545,"311":0.028385489485317196,"312":-0.001642104311617327,"313":0.05350762288603759,"314":0.012892594790156127,"315":-0.03691003370330585,"316":-0.026262212550193467,"317":-0.000022880586861625086,"318":0.010555022711023505,"319":0.10219938072417178,"320":-0.07246470833360362,"321":-0.03654583237545803,"322":-0.00918755178198317,"323":0.04001409196330335,"324":0.052694777135214775,"325":0.01449473952450581,"326":0.03932221484786547,"327":-0.020176211209818933,"328":0.03603411397622473,"329":0.0713419908630517,"330":0.09506170108094562,"331":-0.05618329592578569,"332":-0.011373278602589977,"333":-0.009585597070457159,"334":0.02078051620304051,"335":-0.021663471622566273,"336":-0.06286440557132189,"337":-0.07197432509862144,"338":-0.003316601621875392,"339":0.05337321761148816,"340":0.03161385419780708,"341":-0.08862719047105594,"342":-0.026135758390104635,"343":-0.029224361070514834,"344":-0.03666573682496362,"345":0.03779386265951964,"346":-0.019716343146243234,"347":0.07035850524683407,"348":-0.02320719387783389,"349":0.01696296698815072,"350":0.005318858622294323,"351":0.049677411686388236,"352":-0.10095319604960094,"353":-0.029405744742735596,"354":0.007005243736605582,"355":0.0005209258722876436,"356":0.10755129412818965,"357":-0.02130135383696441,"358":-0.04692102206785591,"359":0.04034368622032348,"360":-0.07355519401345319,"361":0.005705590351322878,"362":0.009423468730541501,"363":-0.015181750627383311,"364":0.10704335124310468,"365":0.09633261037789083,"366":-0.04274391583285304,"367":-0.040586724349535655,"368":0.051322748568328115,"369":0.004094533740656665,"370":0.009363092461236105,"371":-0.029706980576309546,"372":-0.07913840595418872,"373":-0.014471197183452463,"374":0.005159713622819173}},{"sx":1,"sy":1,"depth":375,"w":{"0":-0.004548478781910733,"1":0.005846069877980184,"2":0.062383812597282484,"3":0.021518176900784832,"4":-0.04638601570864899,"5":0.06528957405523134,"6":-0.04740171842819298,"7":-0.09949909916060544,"8":0.039229482899379685,"9":-0.10040015404588411,"10":-0.012897191321440606,"11":0.07601451435028707,"12":-0.038871679080773006,"13":0.0007550598028884949,"14":-0.046359457546307506,"15":0.045792528412401196,"16":-0.021828231553450483,"17":0.07686851133296072,"18":0.03873909561515841,"19":0.07438656977426966,"20":0.016552147634900094,"21":0.09528654014560532,"22":-0.031838677139188455,"23":-0.028226069140180915,"24":-0.06484485312050703,"25":0.039408808812028455,"26":-0.012780844869694814,"27":-0.1147389526442929,"28":0.043516593885990634,"29":-0.04548916332885898,"30":0.013974141513580103,"31":-0.04299115322904313,"32":-0.06367573101905895,"33":-0.051512934062902846,"34":-0.0731899585506486,"35":0.12372029579203567,"36":-0.09945158204067887,"37":-0.027657587880489172,"38":-0.06318893663380631,"39":-0.06619577998683476,"40":0.020684488658867673,"41":0.03189433227467151,"42":-0.025638898723981604,"43":-0.0709864285596946,"44":-0.02727038049139277,"45":0.05546930064010033,"46":-0.05529794087029541,"47":0.07022982597049682,"48":-0.09656433691295735,"49":-0.04107621668125821,"50":-0.027291483295846658,"51":0.0468535680322018,"52":-0.12938871502355548,"53":-0.032516988719257074,"54":-0.07135412321648144,"55":-0.13707422123165117,"56":0.06736168940443622,"57":0.07048665460713062,"58":0.004897152251687103,"59":0.001088042794576828,"60":-0.13231069070608023,"61":-0.032349133657908855,"62":0.0939413469955824,"63":-0.08919138033468257,"64":0.07073091608042446,"65":-0.0010935361447156101,"66":-0.0033015252910684042,"67":0.02959222815045543,"68":0.010462209113554369,"69":-0.07891288940125187,"70":-0.08881575373255983,"71":0.09408952378787266,"72":-0.035006986080949806,"73":-0.035203945655744674,"74":0.07973460554593322,"75":-0.017268967973559333,"76":-0.09307812237308932,"77":0.01770844078761622,"78":0.02877603119319022,"79":0.05391493638160458,"80":0.03356057000220338,"81":-0.15669459859012735,"82":-0.056812509980310275,"83":0.01958861008248441,"84":-0.045558398475614784,"85":0.020541390079145457,"86":-0.017795154559999606,"87":-0.05262975747706626,"88":0.14809573440417684,"89":0.07174105108547738,"90":-0.08418537735907816,"91":0.04807184091279611,"92":-0.0714059112387214,"93":-0.08181173636964294,"94":-0.08235104434109194,"95":-0.019648606121265084,"96":-0.0559171024687559,"97":0.08893136053507063,"98":-0.033163258239391036,"99":0.03478441844085006,"100":-0.0107347816823674,"101":0.08876311708445621,"102":-0.03004842570885901,"103":0.028875852086774432,"104":-0.09752464704097079,"105":0.014213059868700955,"106":-0.020999744915701002,"107":-0.04004205888028073,"108":0.009478916211794256,"109":-0.04386762775483623,"110":0.0812875970540235,"111":-0.02455432525157582,"112":-0.048950219917888164,"113":-0.011444964031477807,"114":0.020569166833852053,"115":-0.07453666060303722,"116":0.01789325305035577,"117":-0.12201981208629169,"118":-0.035659337072159555,"119":0.028390467239582107,"120":-0.08737588017336916,"121":0.02944847832081731,"122":-0.010708469461466847,"123":-0.03743557613110412,"124":0.014328147708284562,"125":0.013893611915245426,"126":-0.10042847876777106,"127":-0.04036280153365225,"128":0.08453077557882785,"129":-0.018774517228415024,"130":0.00046086530072628803,"131":0.024014401851573625,"132":-0.046990639275534755,"133":0.04746380158390795,"134":-0.00035129020583149793,"135":-0.047110434140397256,"136":0.08348851062913512,"137":-0.0033006128271774013,"138":0.005295204037002011,"139":0.0802343063717424,"140":-0.0414031277311248,"141":-0.05407699992430988,"142":-0.008484129558688542,"143":0.011530995789265683,"144":0.06831180237848976,"145":-0.050494314755879684,"146":-0.020684853722922447,"147":0.024054616575219883,"148":-0.029457678101603213,"149":-0.019500602993557378,"150":-0.03556256591061706,"151":-0.06505184683980178,"152":-0.03412325208454775,"153":-0.06407287359503669,"154":0.05786219568683706,"155":0.02230283243267257,"156":0.02997201987013674,"157":-0.04859124297043778,"158":0.043616172563936344,"159":0.041035085698283326,"160":0.0675727330629354,"161":-0.016401732532182516,"162":-0.032905392635512246,"163":0.02330431400900162,"164":-0.01987709504742717,"165":-0.09394783589265468,"166":0.029470195446259718,"167":-0.029940151311316096,"168":-0.026535954327991572,"169":0.17366490132871712,"170":-0.00357433350138327,"171":-0.05882414119511228,"172":0.012941858190353655,"173":-0.01547659847410401,"174":0.08122420034436145,"175":-0.0174855951783453,"176":0.10996793017882708,"177":0.04273426898602004,"178":0.07666402839589832,"179":-0.02706195876340903,"180":-0.00011679765282648837,"181":0.06169083990510784,"182":-0.050064197719607094,"183":0.019000431832321897,"184":-0.05330375145490438,"185":-0.002132048503118986,"186":0.0014865058749372177,"187":-0.04857761691084102,"188":-0.025041916156046118,"189":-0.07846980157600819,"190":-0.026637915861277485,"191":-0.025925883177737804,"192":0.009910258424781609,"193":-0.020208636407019868,"194":0.03298597464986916,"195":0.04463657518216511,"196":0.03404743281297785,"197":0.023139169212350003,"198":-0.02621312040913493,"199":-0.07454487054627482,"200":0.04790996942987816,"201":0.039998688035276696,"202":0.06440323747875455,"203":0.02724093162824592,"204":0.019008484256264255,"205":-0.007929038454395233,"206":-0.05414522311392241,"207":-0.013625849023236741,"208":0.012910370898684166,"209":-0.04027101994250513,"210":-0.08647993735254604,"211":-0.08784809759091587,"212":0.029735243976216824,"213":0.019744140262872578,"214":-0.04003664490194391,"215":-0.02299221251975381,"216":-0.09976307312156411,"217":0.010662131454321898,"218":-0.016431007078885836,"219":-0.04159625527219721,"220":0.05151060312216607,"221":0.018402741401494293,"222":0.041804028476391586,"223":-0.01858535482609068,"224":0.10422306123215307,"225":-0.026861578724191877,"226":0.06551206109079996,"227":0.01636370045733198,"228":0.04221890900923567,"229":-0.037876919921534094,"230":0.022988820840458418,"231":-0.005290137948021853,"232":0.047333026700456055,"233":0.05519722040513516,"234":-0.09479153372556062,"235":-0.015542141031652008,"236":0.0635541273218047,"237":-0.04071681874506051,"238":0.04028618147508789,"239":-0.0029881096146275577,"240":-0.000014772976613146768,"241":0.14763426985804762,"242":-0.03267141420890934,"243":-0.053314634317305674,"244":-0.01255061099629997,"245":-0.057112363692254614,"246":-0.0018483590826926738,"247":0.0711318845928524,"248":0.13318928166850283,"249":0.0409135335990463,"250":-0.013395712224450946,"251":0.001538554082883035,"252":-0.14301233733674681,"253":0.07137828471413718,"254":-0.011190450413145628,"255":-0.0006797095872149089,"256":0.022532462331708726,"257":-0.010509258019801671,"258":0.011447758422223358,"259":-0.017631626452921875,"260":-0.019617017341289154,"261":0.0006981203025303882,"262":0.047358168376424016,"263":0.03383516537320213,"264":0.08329821722521408,"265":0.011475700649098126,"266":0.021533046284990684,"267":-0.06869930636479463,"268":-0.030372057144279856,"269":-0.018489711183111043,"270":-0.0029205466402510375,"271":0.0004434065656003576,"272":-0.016794868292503266,"273":-0.01394873234766833,"274":0.01709244163288525,"275":0.025968153776254263,"276":0.007601720307856638,"277":0.0070737147152369955,"278":-0.012477823583721607,"279":0.030079970202364376,"280":-0.11311273328824113,"281":-0.10881635869977313,"282":-0.028859589784692753,"283":-0.04432232137670285,"284":0.020567344008448767,"285":-0.08078365030843913,"286":-0.10178755022294082,"287":0.01611637984354895,"288":0.09249529039736269,"289":-0.044038263372501524,"290":-0.011322395036827445,"291":-0.0577846008122189,"292":-0.04249937559507983,"293":0.02490772130898522,"294":-0.043036419699840234,"295":0.031122476042908635,"296":0.04278591162810176,"297":-0.015570297465043435,"298":-0.07484312723245025,"299":-0.115819182422603,"300":0.0357083007759819,"301":-0.023399173239787917,"302":0.03383757519594296,"303":0.05394716336006246,"304":-0.08092464851503346,"305":-0.007187291802038297,